{"learner":{"attributes":{"scikit_learn":"{\"_estimator_type\": \"classifier\"}"},"feature_names":["building_type_code","build_age","exclusive_area","floor","dist_to_subway","is_station_area","avg_sale_price","avg_jeonse_deposit","gap_amount","total_tx_count","group_avg_jeonse_rate","jeonse_rate_deviation"],"feature_types":["int","float","float","float","float","int","float","float","float","int","float","float"],"gradient_booster":{"model":{"cats":{"enc":[],"feature_segments":[],"sorted_idx":[]},"gbtree_model_param":{"num_parallel_tree":"1","num_trees":"600"},"iteration_indptr":[0,3,6,9,12,15,18,21,24,27,30,33,36,39,42,45,48,51,54,57,60,63,66,69,72,75,78,81,84,87,90,93,96,99,102,105,108,111,114,117,120,123,126,129,132,135,138,141,144,147,150,153,156,159,162,165,168,171,174,177,180,183,186,189,192,195,198,201,204,207,210,213,216,219,222,225,228,231,234,237,240,243,246,249,252,255,258,261,264,267,270,273,276,279,282,285,288,291,294,297,300,303,306,309,312,315,318,321,324,327,330,333,336,339,342,345,348,351,354,357,360,363,366,369,372,375,378,381,384,387,390,393,396,399,402,405,408,411,414,417,420,423,426,429,432,435,438,441,444,447,450,453,456,459,462,465,468,471,474,477,480,483,486,489,492,495,498,501,504,507,510,513,516,519,522,525,528,531,534,537,540,543,546,549,552,555,558,561,564,567,570,573,576,579,582,585,588,591,594,597,600],"tree_info":[0,1,2,0,1,2,0,1,2,0,1,2,0,1,2,0,1,2,0,1,2,0,1,2,0,1,2,0,1,2,0,1,2,0,1,2,0,1,2,0,1,2,0,1,2,0,1,2,0,1,2,0,1,2,0,1,2,0,1,2,0,1,2,0,1,2,0,1,2,0,1,2,0,1,2,0,1,2,0,1,2,0,1,2,0,1,2,0,1,2,0,1,2,0,1,2,0,1,2,0,1,2,0,1,2,0,1,2,0,1,2,0,1,2,0,1,2,0,1,2,0,1,2,0,1,2,0,1,2,0,1,2,0,1,2,0,1,2,0,1,2,0,1,2,0,1,2,0,1,2,0,1,2,0,1,2,0,1,2,0,1,2,0,1,2,0,1,2,0,1,2,0,1,2,0,1,2,0,1,2,0,1,2,0,1,2,0,1,2,0,1,2,0,1,2,0,1,2,0,1,2,0,1,2,0,1,2,0,1,2,0,1,2,0,1,2,0,1,2,0,1,2,0,1,2,0,1,2,0,1,2,0,1,2,0,1,2,0,1,2,0,1,2,0,1,2,0,1,2,0,1,2,0,1,2,0,1,2,0,1,2,0,1,2,0,1,2,0,1,2,0,1,2,0,1,2,0,1,2,0,1,2,0,1,2,0,1,2,0,1,2,0,1,2,0,1,2,0,1,2,0,1,2,0,1,2,0,1,2,0,1,2,0,1,2,0,1,2,0,1,2,0,1,2,0,1,2,0,1,2,0,1,2,0,1,2,0,1,2,0,1,2,0,1,2,0,1,2,0,1,2,0,1,2,0,1,2,0,1,2,0,1,2,0,1,2,0,1,2,0,1,2,0,1,2,0,1,2,0,1,2,0,1,2,0,1,2,0,1,2,0,1,2,0,1,2,0,1,2,0,1,2,0,1,2,0,1,2,0,1,2,0,1,2,0,1,2,0,1,2,0,1,2,0,1,2,0,1,2,0,1,2,0,1,2,0,1,2,0,1,2,0,1,2,0,1,2,0,1,2,0,1,2,0,1,2,0,1,2,0,1,2,0,1,2,0,1,2,0,1,2,0,1,2,0,1,2,0,1,2,0,1,2,0,1,2,0,1,2,0,1,2,0,1,2,0,1,2,0,1,2,0,1,2,0,1,2,0,1,2,0,1,2,0,1,2,0,1,2,0,1,2,0,1,2,0,1,2,0,1,2,0,1,2,0,1,2,0,1,2,0,1,2,0,1,2,0,1,2,0,1,2,0,1,2,0,1,2,0,1,2,0,1,2,0,1,2,0,1,2,0,1,2,0,1,2,0,1,2,0,1,2,0,1,2,0,1,2,0,1,2,0,1,2,0,1,2,0,1,2],"trees":[{"base_weights":[1.0287386E-7,-6.163361E-1,3.3952215E-1,4.6414483E-1,-7.227844E-1,-5.8919036E-1,5.6830907E-1,1.3261335E0,-8.182629E-2,-5.758846E-1,-7.642816E-2,-6.7968357E-1,5.0438833E-1,7.086078E-1,-1.3692527E-1,-5.835188E-2,1.3714705E0,5.755532E-1,-7.115721E-1,-7.1304727E-1,8.3476514E-1,-7.630504E-2,-3.1331477E-1,-3.4157592E-1,1.2983353E0,-4.726643E-1,8.18121E-1,5.131462E-1,-6.172531E-1,2.4453266E-1,1.3910886E0,1.2566216E0,-6.322903E-1,-3.9570507E-1,-7.506742E-1,-7.508028E-1,-3.248051E-1,3.6247072E-1,1.3425757E0,-6.639997E-1,1.3617276E0,-7.440691E-2,1.8665133E-1,1.4090258E-1,4.680406E-1,-7.644437E-2,3.9310936E-2,3.1901675E-1,9.291034E-1,1.0019357E0,7.782638E-2,-2.8021675E-1,-7.27708E-1,-4.4233963E-2,8.278691E-2,1.4182605E-1,5.288117E-2,-5.3252943E-2,1.3197845E-1,8.278691E-2,-7.0031695E-2,9.966656E-2,-7.092848E-2,-4.1966304E-2,-7.597172E-2,-5.538572E-2,-7.645184E-2,7.163489E-2,-7.1469665E-2,1.13357596E-1,-7.240466E-2,4.044662E-2,1.3671695E-1,-7.629221E-2,-2.049019E-2,1.3816945E-1,4.044662E-2,-5.2452087E-2,1.1354692E-1,1.1765889E-1,-5.835188E-2,-7.5854205E-2,9.9796094E-2,-7.045563E-2,1.04982734E-1,4.678571E-2,1.0945391E-1,-7.0751086E-3,1.1452737E-1,7.65106E-2,-6.3158296E-2,1.0003116E-1,-7.420906E-2,-2.3367627E-2,-7.447005E-2],"categories":[],"categories_nodes":[],"categories_segments":[],"categories_sizes":[],"default_left":[0,0,0,0,0,0,0,0,0,0,0,0,0,0,0,0,0,0,0,0,0,0,0,0,0,0,0,0,0,0,0,0,0,0,0,0,0,0,0,0,0,0,0,0,0,0,0,0,0,0,0,0,0,0,0,0,0,0,0,0,0,0,0,0,0,0,0,0,0,0,0,0,0,0,0,0,0,0,0,0,0,0,0,0,0,0,0,0,0,0,0,0,0,0,0],"id":0,"left_children":[1,3,5,7,9,11,13,15,17,19,-1,21,23,25,27,-1,29,31,33,35,37,-1,39,41,43,45,47,49,51,53,55,57,59,61,63,65,67,69,71,73,75,-1,77,-1,79,-1,81,83,85,87,89,91,93,-1,-1,-1,-1,-1,-1,-1,-1,-1,-1,-1,-1,-1,-1,-1,-1,-1,-1,-1,-1,-1,-1,-1,-1,-1,-1,-1,-1,-1,-1,-1,-1,-1,-1,-1,-1,-1,-1,-1,-1,-1,-1],"loss_changes":[2.534212E3,4.950874E2,1.6595161E3,1.8195367E2,2.343274E1,1.5313318E2,6.2005835E2,1.3777557E1,9.8731155E1,1.6828424E2,0E0,4.3326416E1,8.0081215E1,6.764851E2,3.2521643E2,0E0,2.9034424E0,9.683952E1,1.2066689E0,1.1342041E1,1.804351E1,0E0,1.5721469E2,1.2511869E1,4.9811325E0,6.636308E1,2.64656E2,9.411588E1,2.2089203E1,1.8581759E0,2.6237183E0,9.177521E0,4.827343E0,7.4858866E0,2.1247864E-3,1.5203247E0,2.9664125E1,3.5506943E1,2.9747772E-1,9.867081E0,3.2790375E-1,0E0,1.811716E1,0E0,7.1814E0,0E0,1.24778015E2,6.5277045E2,2.9804468E2,3.2131653E1,1.1517377E2,8.91263E1,3.60701E0,0E0,0E0,0E0,0E0,0E0,0E0,0E0,0E0,0E0,0E0,0E0,0E0,0E0,0E0,0E0,0E0,0E0,0E0,0E0,0E0,0E0,0E0,0E0,0E0,0E0,0E0,0E0,0E0,0E0,0E0,0E0,0E0,0E0,0E0,0E0,0E0,0E0,0E0,0E0,0E0,0E0,0E0],"parents":[2147483647,0,0,1,1,2,2,3,3,4,4,5,5,6,6,7,7,8,8,9,9,11,11,12,12,13,13,14,14,16,16,17,17,18,18,19,19,20,20,22,22,23,23,24,24,25,25,26,26,27,27,28,28,29,29,30,30,31,31,32,32,33,33,34,34,35,35,36,36,37,37,38,38,39,39,40,40,42,42,44,44,46,46,47,47,48,48,49,49,50,50,51,51,52,52],"right_children":[2,4,6,8,10,12,14,16,18,20,-1,22,24,26,28,-1,30,32,34,36,38,-1,40,42,44,46,48,50,52,54,56,58,60,62,64,66,68,70,72,74,76,-1,78,-1,80,-1,82,84,86,88,90,92,94,-1,-1,-1,-1,-1,-1,-1,-1,-1,-1,-1,-1,-1,-1,-1,-1,-1,-1,-1,-1,-1,-1,-1,-1,-1,-1,-1,-1,-1,-1,-1,-1,-1,-1,-1,-1,-1,-1,-1,-1,-1,-1],"split_conditions":[6.8333336E7,-4.443155E0,-2.2137033E1,7.7774605E1,1.425E8,7.8622406E1,6.9748755E0,-2.4991589E1,-9.2432995E0,5E7,-7.642816E-2,7.371267E1,-2.9689186E1,5.5183083E1,5.958003E1,-5.835188E-2,6.4543945E1,8.369767E1,7.8622406E1,4.05E7,5.7E7,-7.630504E-2,-2.4477064E1,2E0,9.375123E1,-1.9980358E0,-1.4636473E1,1.3211879E1,6.1855618E1,1.25E8,-4.602784E0,-2.9689186E1,-2.4991589E1,-7.7078395E0,-9.04673E0,-1.2250019E0,1.1E8,1.2575E8,2E-1,-2.79048E1,1.31E3,-7.440691E-2,-3.8246155E1,1.4090258E-1,-2.4477064E1,-7.644437E-2,4.7932583E1,6.667581E1,1.05E8,4.1065533E1,5.5183083E1,1.011881E1,7.1786623E0,-4.4233963E-2,8.278691E-2,1.4182605E-1,5.288117E-2,-5.3252943E-2,1.3197845E-1,8.278691E-2,-7.0031695E-2,9.966656E-2,-7.092848E-2,-4.1966304E-2,-7.597172E-2,-5.538572E-2,-7.645184E-2,7.163489E-2,-7.1469665E-2,1.13357596E-1,-7.240466E-2,4.044662E-2,1.3671695E-1,-7.629221E-2,-2.049019E-2,1.3816945E-1,4.044662E-2,-5.2452087E-2,1.1354692E-1,1.1765889E-1,-5.835188E-2,-7.5854205E-2,9.9796094E-2,-7.045563E-2,1.04982734E-1,4.678571E-2,1.0945391E-1,-7.0751086E-3,1.1452737E-1,7.65106E-2,-6.3158296E-2,1.0003116E-1,-7.420906E-2,-2.3367627E-2,-7.447005E-2],"split_indices":[8,11,11,10,7,10,11,11,11,8,0,10,11,10,10,0,10,10,10,8,8,0,11,0,10,11,11,11,10,6,11,11,11,11,11,11,7,7,3,11,4,0,11,0,11,0,10,10,8,10,10,11,11,0,0,0,0,0,0,0,0,0,0,0,0,0,0,0,0,0,0,0,0,0,0,0,0,0,0,0,0,0,0,0,0,0,0,0,0,0,0,0,0,0,0],"split_type":[0,0,0,0,0,0,0,0,0,0,0,0,0,0,0,0,0,0,0,0,0,0,0,0,0,0,0,0,0,0,0,0,0,0,0,0,0,0,0,0,0,0,0,0,0,0,0,0,0,0,0,0,0,0,0,0,0,0,0,0,0,0,0,0,0,0,0,0,0,0,0,0,0,0,0,0,0,0,0,0,0,0,0,0,0,0,0,0,0,0,0,0,0,0,0],"sum_hessian":[1.2108364E4,4.3006167E3,7.807748E3,3.8539407E2,3.9152224E3,1.5429381E3,6.26481E3,1.4889194E2,2.3650214E2,8.656614E2,3.049561E3,1.4253679E3,1.1757016E2,5.22529E3,1.0395199E3,3.1775718E0,1.4571437E2,1.157544E2,1.20747734E2,7.8939966E2,7.626173E1,1.1602677E3,2.6510028E2,5.7196293E1,6.0373867E1,4.430443E2,4.7822456E3,4.416825E2,5.9783746E2,2.723633E0,1.4299074E2,7.3992035E1,4.1762375E1,1.4526043E1,1.0622169E2,7.185852E2,7.081446E1,4.040056E1,3.5861168E1,2.197064E2,4.5393883E1,3.2229656E1,2.4966637E1,5.2656906E1,7.7169604E0,2.8189603E2,1.6114828E2,8.706547E2,3.911591E3,2.0745006E2,2.3423244E2,1.48438E2,4.4939944E2,1.3618165E0,1.3618165E0,1.379974E2,4.993327E0,2.2696943E0,7.1722336E1,1.3618165E0,4.040056E1,2.2696943E0,1.2256349E1,4.0854497E0,1.0213624E2,4.9479332E1,6.6910583E2,1.9065432E1,5.1749027E1,2.360482E1,1.6795736E1,1.3618165E0,3.449935E1,1.8021371E2,3.949268E1,4.4032066E1,1.3618165E0,1.4526043E1,1.0440594E1,4.5393887E0,3.1775718E0,8.806413E1,7.308415E1,3.6269714E2,5.0795755E2,1.0336188E3,2.8779722E3,2.4512697E1,1.8293735E2,1.1893198E2,1.1530047E2,3.9038742E1,1.0939926E2,1.5433921E1,4.3396555E2],"tree_param":{"num_deleted":"0","num_feature":"12","num_nodes":"95","size_leaf_vector":"1"}},{"base_weights":[-4.247354E-7,-6.3102466E-1,1.320051E-1,-6.9545954E-2,-6.7323345E-1,3.9578912E-1,-3.695024E-2,-5.322662E-1,1.563194E0,-5.063472E-1,-6.867184E-2,-1.2220996E-1,5.6939906E-1,-1.1518344E-1,4.913463E-1,-6.354084E-1,3.1159383E-1,3.5218194E-2,1.6209193E0,-6.567079E-1,1.2091717E0,-4.5635226E-1,3.5620117E-1,8.333562E-1,-6.297568E-2,7.160421E-2,-3.265853E-1,1.5759513E-1,1.3094534E0,1.2710254E-1,-6.791489E-2,1.1694296E-1,-4.4423997E-1,3.5218194E-2,1.685802E-1,-6.7294437E-1,1.08290225E-1,2.896939E-1,1.4871757E-1,1.2147757E0,-5.618253E-1,-1.9265588E-1,1.2499703E0,3.446302E-1,1.0193007E0,-4.474201E-1,6.516316E-1,-4.8153937E-1,2.8585875E-1,5.029348E-1,-4.492733E-1,-1.5338905E-1,5.7158446E-1,8.238416E-1,1.6343406E0,-5.224057E-2,1.1257416E-1,-5.677822E-2,8.355613E-3,-6.812892E-2,-3.459787E-3,-3.7325516E-2,5.4036744E-2,9.971788E-2,-4.2137768E-2,-5.677822E-2,1.5684976E-1,-1.8023519E-2,-6.353014E-2,-5.745056E-2,9.645454E-2,1.5064663E-1,-5.3488493E-2,1.21031635E-1,-4.953828E-2,-1.3826403E-2,1.1370104E-1,1.9545114E-2,-6.2799595E-2,1.1073639E-1,-1.1627602E-2,-6.779208E-2,6.7153783E-3,-5.9607234E-2,3.801741E-2,1.57506E-2,8.362209E-2,-5.183493E-2,-5.5342554E-3,1.00621894E-1,-4.5941643E-2,-1.8653346E-2,1.3186441E-1,-6.2926084E-2,1.5968315E-1,1.7231561E-1,-5.5895466E-2],"categories":[],"categories_nodes":[],"categories_segments":[],"categories_sizes":[],"default_left":[0,0,0,0,0,0,0,0,0,0,0,0,0,0,0,0,0,0,0,0,0,0,0,0,0,0,0,0,0,0,0,0,0,0,0,0,0,0,0,0,0,0,0,0,0,0,0,0,0,0,0,0,0,0,0,0,0,0,0,0,0,0,0,0,0,0,0,0,0,0,0,0,0,0,0,0,0,0,0,0,0,0,0,0,0,0,0,0,0,0,0,0,0,0,0,0,0],"id":1,"left_children":[1,3,5,7,9,11,13,15,17,19,-1,21,23,25,27,29,31,-1,33,35,37,39,41,43,45,47,49,51,53,55,-1,-1,57,-1,-1,59,61,63,-1,65,67,69,71,73,75,77,79,81,83,85,87,89,91,93,95,-1,-1,-1,-1,-1,-1,-1,-1,-1,-1,-1,-1,-1,-1,-1,-1,-1,-1,-1,-1,-1,-1,-1,-1,-1,-1,-1,-1,-1,-1,-1,-1,-1,-1,-1,-1,-1,-1,-1,-1,-1,-1],"loss_changes":[8.8084814E2,4.3309204E1,3.897663E2,9.831075E1,3.4812012E0,3.071325E2,2.2041669E2,9.01313E0,1.4386215E0,3.4586857E1,0E0,1.3730995E2,4.2695648E2,1.8343315E2,1.8761974E2,3.1073265E0,8.106728E0,0E0,1.642067E0,1.5770187E0,2.3577337E0,8.979365E1,1.735852E2,1.6362976E2,2.0745996E2,2.9248343E2,2.2198872E2,6.3135612E1,3.0078217E1,4.3218026E0,0E0,0E0,5.0031936E-1,0E0,0E0,6.088371E-1,9.0457433E-1,2.3190546E0,0E0,2.0015045E1,1.3238159E1,9.7675224E1,6.2414948E1,3.6334357E2,1.7819238E2,5.7110344E1,9.2582954E1,7.4296646E1,1.4817706E2,3.2245155E1,5.1639465E1,9.9980965E1,1.193397E2,9.2950424E1,2.401236E1,0E0,0E0,0E0,0E0,0E0,0E0,0E0,0E0,0E0,0E0,0E0,0E0,0E0,0E0,0E0,0E0,0E0,0E0,0E0,0E0,0E0,0E0,0E0,0E0,0E0,0E0,0E0,0E0,0E0,0E0,0E0,0E0,0E0,0E0,0E0,0E0,0E0,0E0,0E0,0E0,0E0,0E0],"parents":[2147483647,0,0,1,1,2,2,3,3,4,4,5,5,6,6,7,7,8,8,9,9,11,11,12,12,13,13,14,14,15,15,16,16,18,18,19,19,20,20,21,21,22,22,23,23,24,24,25,25,26,26,27,27,28,28,29,29,32,32,35,35,36,36,37,37,39,39,40,40,41,41,42,42,43,43,44,44,45,45,46,46,47,47,48,48,49,49,50,50,51,51,52,52,53,53,54,54],"right_children":[2,4,6,8,10,12,14,16,18,20,-1,22,24,26,28,30,32,-1,34,36,38,40,42,44,46,48,50,52,54,56,-1,-1,58,-1,-1,60,62,64,-1,66,68,70,72,74,76,78,80,82,84,86,88,90,92,94,96,-1,-1,-1,-1,-1,-1,-1,-1,-1,-1,-1,-1,-1,-1,-1,-1,-1,-1,-1,-1,-1,-1,-1,-1,-1,-1,-1,-1,-1,-1,-1,-1,-1,-1,-1,-1,-1,-1,-1,-1,-1,-1],"split_conditions":[3E7,9.75E7,1.05E8,2.2E7,1.15E8,-4.602784E0,4.911094E0,1.85E7,1.56E2,2.65E7,-6.867184E-2,7.7774605E1,1.2768605E1,-1.08502865E1,6.1855618E1,6E7,8.3E7,3.5218194E-2,8.9E7,2.55E7,2.7466666E7,-2.4477064E1,-9.456087E0,4.7233332E7,6.1E7,-3.0982944E1,5.5185215E1,1.1986196E1,6.43476E1,1.2288462E7,-6.791489E-2,1.1694296E-1,4.0118332E1,3.5218194E-2,1.685802E-1,1.687E3,3.8176666E1,1.35E8,1.4871757E-1,-3.4379448E1,9E7,8.406834E1,8.77334E1,1.6333333E8,1.425E8,2.045E8,3.2015626E8,7.222829E1,5.5864235E1,4.7932583E1,6.91806E1,4.7932583E1,5.5864235E1,7.397405E0,1.5305336E1,-5.224057E-2,1.1257416E-1,-5.677822E-2,8.355613E-3,-6.812892E-2,-3.459787E-3,-3.7325516E-2,5.4036744E-2,9.971788E-2,-4.2137768E-2,-5.677822E-2,1.5684976E-1,-1.8023519E-2,-6.353014E-2,-5.745056E-2,9.645454E-2,1.5064663E-1,-5.3488493E-2,1.21031635E-1,-4.953828E-2,-1.3826403E-2,1.1370104E-1,1.9545114E-2,-6.2799595E-2,1.1073639E-1,-1.1627602E-2,-6.779208E-2,6.7153783E-3,-5.9607234E-2,3.801741E-2,1.57506E-2,8.362209E-2,-5.183493E-2,-5.5342554E-3,1.00621894E-1,-4.5941643E-2,-1.8653346E-2,1.3186441E-1,-6.2926084E-2,1.5968315E-1,1.7231561E-1,-5.5895466E-2],"split_indices":[8,7,8,8,7,11,11,8,4,8,0,10,11,11,10,7,7,0,6,8,8,11,11,8,8,11,10,11,10,8,0,0,2,0,0,4,2,6,0,11,7,10,10,7,7,7,7,10,10,10,10,10,10,11,11,0,0,0,0,0,0,0,0,0,0,0,0,0,0,0,0,0,0,0,0,0,0,0,0,0,0,0,0,0,0,0,0,0,0,0,0,0,0,0,0,0,0],"split_type":[0,0,0,0,0,0,0,0,0,0,0,0,0,0,0,0,0,0,0,0,0,0,0,0,0,0,0,0,0,0,0,0,0,0,0,0,0,0,0,0,0,0,0,0,0,0,0,0,0,0,0,0,0,0,0,0,0,0,0,0,0,0,0,0,0,0,0,0,0,0,0,0,0,0,0,0,0,0,0,0,0,0,0,0,0,0,0,0,0,0,0,0,0,0,0,0,0],"sum_hessian":[1.0572575E4,1.8284205E3,8.744154E3,1.2802512E2,1.7003954E3,3.4134744E3,5.33068E3,1.0027973E2,2.774538E1,1.3000693E2,1.5703885E3,8.569359E2,2.5565386E3,4.6437837E3,6.8689636E2,8.957794E1,1.070179E1,1.5854503E0,2.615993E1,1.2009786E2,9.909064E0,5.0456955E2,3.5236633E2,1.8034497E3,7.5308887E2,2.4657715E3,2.1780125E3,4.8871506E2,1.9818129E2,4.756351E0,8.4821594E1,4.756351E0,5.9454384E0,1.5854503E0,2.457448E1,1.1771968E2,2.3781755E0,2.774538E0,7.1345263E0,2.933083E1,4.7523874E2,2.1879214E2,1.3357419E2,4.978314E2,1.3056183E3,4.8990414E2,2.6318475E2,6.8808545E2,1.7776862E3,2.8022833E2,1.897784E3,2.794356E2,2.0927943E2,8.085796E1,1.1732332E2,3.1709006E0,1.5854503E0,4.756351E0,1.1890877E0,1.1613423E2,1.5854503E0,1.1890877E0,1.1890877E0,1.1890877E0,1.5854503E0,4.756351E0,2.457448E1,7.72907E1,3.9794803E2,1.6488683E2,5.390531E1,1.16926956E2,1.6647228E1,2.4495207E2,2.5287932E2,1.20494225E2,1.1851241E3,1.0741426E2,3.8248987E2,1.6488683E2,9.829792E1,5.0655136E2,1.8153406E2,1.7122864E2,1.6064575E3,1.3833054E2,1.418978E2,1.6143848E3,2.8339923E2,5.7868935E1,2.2156668E2,1.04243355E2,1.0503608E2,2.8141743E1,5.271622E1,1.1296333E2,4.359988E0],"tree_param":{"num_deleted":"0","num_feature":"12","num_nodes":"97","size_leaf_vector":"1"}},{"base_weights":[3.4562734E-7,1.0545856E0,-3.666263E-1,3.2840312E-1,1.2424085E0,8.122403E-1,-5.619894E-1,-4.362011E-1,9.398077E-1,1.2904294E0,9.6053463E-1,1.1925313E0,1.5383784E-1,-6.315874E-1,1.0016341E-1,-6.527505E-1,4.777077E-1,4.4089186E-1,1.190755E0,1.1477623E0,1.3109271E-1,-5.206689E-1,1.2690536E0,1.2983832E0,7.283248E-1,1.0072963E0,-6.694777E-1,4.6763903E-1,-6.8317145E-1,7.627558E-1,-3.8235843E-1,3.1227952E-1,-7.0583785E-1,-5.6168467E-1,8.4439594E-1,-7.529982E-1,1.2999605E-1,2.8529665E-1,1.2894087E-1,1.260831E0,-7.56956E-2,-5.887013E-1,9.250202E-2,5.4566944E-1,1.3001613E-1,1.3141909E0,1.1001295E0,1.2631528E0,-6.960796E-1,1.2193033E0,4.727982E-2,-2.8626037E-1,-7.959617E-1,1.2317857E0,-7.6717424E-1,-2.9649228E-1,-7.1658087E-1,-1.874435E-1,1.1385024E0,-4.750484E-1,1.1484724E0,-6.5185964E-2,8.384114E-2,-7.942583E-2,-4.9925808E-2,3.5719473E-2,-6.783761E-2,-6.2414236E-2,1.2496398E-1,-7.893912E-2,-2.1713967E-2,-2.8966654E-2,1.0258185E-1,1.3000165E-1,8.75462E-2,-7.611437E-2,-2.7374884E-2,1.0131878E-1,-6.366667E-2,5.1407933E-2,1.3157788E-1,1.2912638E-1,-2.0969851E-2,-5.7273987E-3,1.2800157E-1,-2.7202664E-2,-7.831911E-2,1.3092782E-1,8.773686E-2,8.481483E-2,-5.778792E-2,9.963693E-2,-7.257487E-2,-2.6739165E-2,-8.012806E-2,1.3107306E-1,3.532478E-2,-2.8050249E-3,-7.9893366E-2,1.0969036E-1,-7.165747E-2,-3.0159323E-2,-7.5565115E-2,3.6409374E-2,-7.874892E-2,7.563462E-2,1.2856321E-1,-6.994902E-2,-1.2001368E-3,1.6729502E-2,1.2196856E-1],"categories":[],"categories_nodes":[],"categories_segments":[],"categories_sizes":[],"default_left":[0,0,0,0,0,0,0,0,0,0,0,0,0,0,0,0,0,0,0,0,0,0,0,0,0,0,0,0,0,0,0,0,0,0,0,0,0,0,0,0,0,0,0,0,0,0,0,0,0,0,0,0,0,0,0,0,0,0,0,0,0,0,0,0,0,0,0,0,0,0,0,0,0,0,0,0,0,0,0,0,0,0,0,0,0,0,0,0,0,0,0,0,0,0,0,0,0,0,0,0,0,0,0,0,0,0,0,0,0,0,0],"id":2,"left_children":[1,3,5,7,9,11,13,15,17,19,21,23,25,27,29,31,33,35,37,39,-1,41,43,45,47,49,51,53,55,57,59,61,63,65,67,69,-1,71,-1,73,-1,75,-1,77,-1,79,81,83,85,87,89,91,93,95,97,99,101,103,105,107,109,-1,-1,-1,-1,-1,-1,-1,-1,-1,-1,-1,-1,-1,-1,-1,-1,-1,-1,-1,-1,-1,-1,-1,-1,-1,-1,-1,-1,-1,-1,-1,-1,-1,-1,-1,-1,-1,-1,-1,-1,-1,-1,-1,-1,-1,-1,-1,-1,-1,-1],"loss_changes":[4.8573584E3,4.4162378E2,2.1474194E3,3.1237808E2,3.3608887E1,3.3174323E2,3.686245E2,5.9129982E1,4.594159E1,4.919922E0,1.7370471E2,4.0337402E1,3.425263E2,4.1067554E2,2.437607E2,1.2551315E1,2.2392895E1,1.2999423E2,2.1637238E1,6.2121277E1,0E0,7.0344715E0,6.349304E0,6.9421387E-1,1.2146155E2,4.864308E1,1.1803932E1,3.0759433E2,8.909448E1,1.1489929E2,6.3162804E1,7.2645516E0,3.7762756E0,1.9148331E0,2.6316929E1,8.674526E-1,0E0,1.1148933E1,0E0,2.9161072E0,0E0,3.247507E0,0E0,8.746572E0,0E0,1.2060547E-1,1.4432571E1,2.6435242E0,1.4068661E0,4.880005E0,2.268165E1,3.632645E1,3.0885315E-1,1.34869995E1,2.9083023E0,3.235974E2,1.02931885E2,3.0695984E1,1.1978394E1,4.3309776E1,1.5768204E0,0E0,0E0,0E0,0E0,0E0,0E0,0E0,0E0,0E0,0E0,0E0,0E0,0E0,0E0,0E0,0E0,0E0,0E0,0E0,0E0,0E0,0E0,0E0,0E0,0E0,0E0,0E0,0E0,0E0,0E0,0E0,0E0,0E0,0E0,0E0,0E0,0E0,0E0,0E0,0E0,0E0,0E0,0E0,0E0,0E0,0E0,0E0,0E0,0E0,0E0],"parents":[2147483647,0,0,1,1,2,2,3,3,4,4,5,5,6,6,7,7,8,8,9,9,10,10,11,11,12,12,13,13,14,14,15,15,16,16,17,17,18,18,19,19,21,21,22,22,23,23,24,24,25,25,26,26,27,27,28,28,29,29,30,30,31,31,32,32,33,33,34,34,35,35,37,37,39,39,41,41,43,43,45,45,46,46,47,47,48,48,49,49,50,50,51,51,52,52,53,53,54,54,55,55,56,56,57,57,58,58,59,59,60,60],"right_children":[2,4,6,8,10,12,14,16,18,20,22,24,26,28,30,32,34,36,38,40,-1,42,44,46,48,50,52,54,56,58,60,62,64,66,68,70,-1,72,-1,74,-1,76,-1,78,-1,80,82,84,86,88,90,92,94,96,98,100,102,104,106,108,110,-1,-1,-1,-1,-1,-1,-1,-1,-1,-1,-1,-1,-1,-1,-1,-1,-1,-1,-1,-1,-1,-1,-1,-1,-1,-1,-1,-1,-1,-1,-1,-1,-1,-1,-1,-1,-1,-1,-1,-1,-1,-1,-1,-1,-1,-1,-1,-1,-1,-1],"split_conditions":[4.7233332E7,5.9441457E0,-2.4991589E1,7.966247E1,3.6666668E7,7.011812E1,1.2768605E1,1.52E8,2E0,1.21E8,1.7E8,-2.79048E1,-3.4379448E1,4.7932583E1,7.275E7,2.3E7,7.599044E1,5.019776E-1,-1.0619413E1,2.85E7,1.3109271E-1,7.405574E1,1.7833333E8,-2.906838E1,6.608842E1,7.8622406E1,-3.0982944E1,5.019776E-1,-1.958363E1,2.38E8,6.587182E1,7.50794E1,7.599044E1,4.05E7,2.0448492E0,3.3753207E-1,1.2999605E-1,9.7948685E1,1.2894087E-1,2.0932292E7,-7.56956E-2,1.52E8,9.250202E-2,4.5E7,1.3001613E-1,6.8E1,6.774966E1,2.2E8,6.758502E1,-3.7188046E1,-4.2368595E1,7.222829E1,6E7,-1.2250019E0,3.9451473E1,6.2558334E1,5.9966668E7,5.7E7,2.6433333E8,1.9261074E1,1.2983617E1,-6.5185964E-2,8.384114E-2,-7.942583E-2,-4.9925808E-2,3.5719473E-2,-6.783761E-2,-6.2414236E-2,1.2496398E-1,-7.893912E-2,-2.1713967E-2,-2.8966654E-2,1.0258185E-1,1.3000165E-1,8.75462E-2,-7.611437E-2,-2.7374884E-2,1.0131878E-1,-6.366667E-2,5.1407933E-2,1.3157788E-1,1.2912638E-1,-2.0969851E-2,-5.7273987E-3,1.2800157E-1,-2.7202664E-2,-7.831911E-2,1.3092782E-1,8.773686E-2,8.481483E-2,-5.778792E-2,9.963693E-2,-7.257487E-2,-2.6739165E-2,-8.012806E-2,1.3107306E-1,3.532478E-2,-2.8050249E-3,-7.9893366E-2,1.0969036E-1,-7.165747E-2,-3.0159323E-2,-7.5565115E-2,3.6409374E-2,-7.874892E-2,7.563462E-2,1.2856321E-1,-6.994902E-2,-1.2001368E-3,1.6729502E-2,1.2196856E-1],"split_indices":[8,11,11,10,8,10,11,7,0,7,7,11,11,10,8,8,10,11,11,8,0,10,7,11,10,10,11,11,11,7,10,10,10,8,11,11,0,10,0,8,0,7,0,8,0,4,10,6,10,11,11,10,7,11,10,10,8,8,7,11,11,0,0,0,0,0,0,0,0,0,0,0,0,0,0,0,0,0,0,0,0,0,0,0,0,0,0,0,0,0,0,0,0,0,0,0,0,0,0,0,0,0,0,0,0,0,0,0,0,0,0],"split_type":[0,0,0,0,0,0,0,0,0,0,0,0,0,0,0,0,0,0,0,0,0,0,0,0,0,0,0,0,0,0,0,0,0,0,0,0,0,0,0,0,0,0,0,0,0,0,0,0,0,0,0,0,0,0,0,0,0,0,0,0,0,0,0,0,0,0,0,0,0,0,0,0,0,0,0,0,0,0,0,0,0,0,0,0,0,0,0,0,0,0,0,0,0,0,0,0,0,0,0,0,0,0,0,0,0,0,0,0,0,0,0],"sum_hessian":[1.256103E4,3.239855E3,9.321176E3,6.663364E2,2.5735186E3,1.3246675E3,7.9965083E3,2.9620184E2,3.7013458E2,2.1958494E3,3.7766913E2,8.391601E2,4.8550732E2,7.2359897E3,7.6051825E2,2.3969275E2,5.6509098E1,1.24790924E2,2.4534367E2,2.830164E2,1.912833E3,6.4985466E1,3.126837E2,6.8187646E2,1.5728366E2,2.3828003E2,2.4722731E2,3.239855E2,6.9120044E3,3.2021823E2,4.4030005E2,1.2243638E1,2.2744911E2,1.4598184E1,4.1910915E1,5.2270916E1,7.252001E1,2.4487276E1,2.2085638E2,2.674764E2,1.5540002E1,6.2630917E1,2.3545458E0,1.3656365E1,2.990273E2,6.2630914E2,5.556728E1,1.1443092E2,4.2852734E1,1.9495639E2,4.3323643E1,6.2160007E1,1.8506729E2,2.0013638E2,1.23849106E2,5.504928E2,6.3615117E3,9.088547E1,2.2933275E2,4.1581277E2,2.4487276E1,4.2381825E0,8.005456E0,1.5728366E2,7.016547E1,1.4127275E0,1.3185456E1,8.947274E0,3.2963642E1,4.8503643E1,3.7672732E0,1.41272745E1,1.0360002E1,2.4063457E2,2.6841822E1,3.955637E1,2.3074549E1,9.889092E0,3.7672732E0,1.8836366E0,6.2442554E2,4.8503643E1,7.0636373E0,1.4127275E0,1.13018196E2,8.005456E0,3.484728E1,1.5210365E2,4.2852734E1,1.8836367E1,2.4487276E1,1.5540002E1,4.6620007E1,2.3545458E0,1.8271275E2,1.8318365E2,1.695273E1,5.180001E0,1.18669106E2,1.2714547E2,4.2334732E2,5.4813824E2,5.8133735E3,4.7561825E1,4.3323643E1,6.5456375E1,1.6387639E2,2.7972003E2,1.3609274E2,1.8836366E0,2.260364E1],"tree_param":{"num_deleted":"0","num_feature":"12","num_nodes":"111","size_leaf_vector":"1"}},{"base_weights":[-6.215894E-5,-5.869347E-1,3.086576E-1,4.2690456E-1,-6.9212174E-1,-5.6103754E-1,5.115058E-1,1.1772492E0,-7.5387016E-2,-5.4767364E-1,-7.3332965E-2,-6.5015054E-1,4.597797E-1,6.604394E-1,-3.0085182E-2,-5.557194E-2,1.2152432E0,5.252201E-1,-6.826341E-1,-6.830215E-1,7.546674E-1,-7.326597E-2,-2.9574212E-1,-3.3133882E-1,1.1641439E0,-4.9597278E-1,7.59921E-1,4.0343478E-1,-5.5618966E-1,2.2058932E-1,1.2319877E0,1.1252517E0,-5.8516717E-1,-3.6853626E-1,-7.220839E-1,-7.201862E-1,-3.1124002E-1,3.2861972E-1,1.1993527E0,-6.377881E-1,1.2190231E0,-7.280737E-2,1.7802301E-1,1.2588443E-1,4.31415E-1,-7.379899E-2,2.940441E-2,3.6424404E-1,8.9484465E-1,8.335336E-1,-8.055587E-2,-2.143022E-1,-7.1699524E-1,-4.4197362E-2,7.789909E-2,1.2541868E-1,4.959549E-2,-5.3249776E-2,1.1823012E-1,3.8196016E-2,-7.224362E-2,9.605795E-2,-6.828013E-2,-3.9814495E-2,-7.3108695E-2,-5.2667897E-2,-7.338402E-2,6.7131035E-2,-6.9488265E-2,1.0308029E-1,-7.10996E-2,3.7878126E-2,1.2198571E-1,-7.0200495E-2,1.72656E-3,1.23795174E-1,3.476756E-2,-5.0196715E-2,1.0353903E-1,1.08146586E-1,-5.725761E-2,-5.4564353E-2,1.23613216E-1,-7.011645E-2,9.482237E-2,1.0436797E-1,3.938636E-2,-8.43438E-3,1.0312008E-1,6.788966E-2,-6.3466005E-2,1.2112229E-1,-7.1240984E-2,2.3315607E-2,-7.23726E-2],"categories":[],"categories_nodes":[],"categories_segments":[],"categories_sizes":[],"default_left":[0,0,0,0,0,0,0,0,0,0,0,0,0,0,0,0,0,0,0,0,0,0,0,0,0,0,0,0,0,0,0,0,0,0,0,0,0,0,0,0,0,0,0,0,0,0,0,0,0,0,0,0,0,0,0,0,0,0,0,0,0,0,0,0,0,0,0,0,0,0,0,0,0,0,0,0,0,0,0,0,0,0,0,0,0,0,0,0,0,0,0,0,0,0,0],"id":3,"left_children":[1,3,5,7,9,11,13,15,17,19,-1,21,23,25,27,-1,29,31,33,35,37,-1,39,41,43,45,47,49,51,53,55,57,59,61,63,65,67,69,71,73,75,-1,77,-1,79,-1,81,83,85,87,89,91,93,-1,-1,-1,-1,-1,-1,-1,-1,-1,-1,-1,-1,-1,-1,-1,-1,-1,-1,-1,-1,-1,-1,-1,-1,-1,-1,-1,-1,-1,-1,-1,-1,-1,-1,-1,-1,-1,-1,-1,-1,-1,-1],"loss_changes":[2.1855342E3,4.4373523E2,1.394795E3,1.476352E2,2.2025269E1,1.3633896E2,5.1707227E2,1.1015213E1,8.622842E1,1.4862067E2,0E0,4.001483E1,6.761766E1,5.787683E2,3.157723E2,0E0,2.2928467E0,7.9900024E1,1.189949E0,1.0299652E1,1.4682087E1,0E0,1.3626125E2,1.1770557E1,3.9011383E0,5.0736305E1,2.468418E2,1.5807983E2,3.4231308E1,1.7381594E0,1.8487549E0,7.96402E0,5.9022923E0,6.985777E0,1.0349274E-2,1.4410095E0,2.7221867E1,3.1405315E1,1.8670273E-1,9.0132065E0,3.6974335E-1,0E0,1.5692908E1,0E0,6.396245E0,0E0,8.863026E1,7.3419714E2,2.5696997E2,7.30242E1,1.5111432E2,1.439385E2,2.886322E0,0E0,0E0,0E0,0E0,0E0,0E0,0E0,0E0,0E0,0E0,0E0,0E0,0E0,0E0,0E0,0E0,0E0,0E0,0E0,0E0,0E0,0E0,0E0,0E0,0E0,0E0,0E0,0E0,0E0,0E0,0E0,0E0,0E0,0E0,0E0,0E0,0E0,0E0,0E0,0E0,0E0,0E0],"parents":[2147483647,0,0,1,1,2,2,3,3,4,4,5,5,6,6,7,7,8,8,9,9,11,11,12,12,13,13,14,14,16,16,17,17,18,18,19,19,20,20,22,22,23,23,24,24,25,25,26,26,27,27,28,28,29,29,30,30,31,31,32,32,33,33,34,34,35,35,36,36,37,37,38,38,39,39,40,40,42,42,44,44,46,46,47,47,48,48,49,49,50,50,51,51,52,52],"right_children":[2,4,6,8,10,12,14,16,18,20,-1,22,24,26,28,-1,30,32,34,36,38,-1,40,42,44,46,48,50,52,54,56,58,60,62,64,66,68,70,72,74,76,-1,78,-1,80,-1,82,84,86,88,90,92,94,-1,-1,-1,-1,-1,-1,-1,-1,-1,-1,-1,-1,-1,-1,-1,-1,-1,-1,-1,-1,-1,-1,-1,-1,-1,-1,-1,-1,-1,-1,-1,-1,-1,-1,-1,-1,-1,-1,-1,-1,-1,-1],"split_conditions":[6.8333336E7,-4.443155E0,-2.2137033E1,7.7774605E1,1.425E8,7.8622406E1,4.5599566E0,-2.4991589E1,-9.2432995E0,5E7,-7.3332965E-2,7.371267E1,-2.9689186E1,5.5183083E1,6.2138535E1,-5.557194E-2,6.4543945E1,2E0,7.8622406E1,4.05E7,5.7E7,-7.326597E-2,-2.4477064E1,2E0,9.375123E1,-1.9980358E0,-1.2811247E1,1.1986196E1,6.4504814E1,1.25E8,-4.602784E0,-2.9689186E1,-1.8828142E1,-7.7078395E0,-9.04673E0,-1.2250019E0,1.1E8,1.2575E8,2E-1,-2.612633E1,1.5E1,-7.280737E-2,-3.8246155E1,1.2588443E-1,-2.4477064E1,-7.379899E-2,5.1412464E1,6.52372E1,7.131287E1,4.7932583E1,5.5864235E1,7.397405E0,1.797389E8,-4.4197362E-2,7.789909E-2,1.2541868E-1,4.959549E-2,-5.3249776E-2,1.1823012E-1,3.8196016E-2,-7.224362E-2,9.605795E-2,-6.828013E-2,-3.9814495E-2,-7.3108695E-2,-5.2667897E-2,-7.338402E-2,6.7131035E-2,-6.9488265E-2,1.0308029E-1,-7.10996E-2,3.7878126E-2,1.2198571E-1,-7.0200495E-2,1.72656E-3,1.23795174E-1,3.476756E-2,-5.0196715E-2,1.0353903E-1,1.08146586E-1,-5.725761E-2,-5.4564353E-2,1.23613216E-1,-7.011645E-2,9.482237E-2,1.0436797E-1,3.938636E-2,-8.43438E-3,1.0312008E-1,6.788966E-2,-6.3466005E-2,1.2112229E-1,-7.1240984E-2,2.3315607E-2,-7.23726E-2],"split_indices":[8,11,11,10,7,10,11,11,11,8,0,10,11,10,10,0,10,0,10,8,8,0,11,0,10,11,11,11,10,6,11,11,11,11,11,11,7,7,3,11,9,0,11,0,11,0,10,10,10,10,10,11,7,0,0,0,0,0,0,0,0,0,0,0,0,0,0,0,0,0,0,0,0,0,0,0,0,0,0,0,0,0,0,0,0,0,0,0,0,0,0,0,0,0,0],"split_type":[0,0,0,0,0,0,0,0,0,0,0,0,0,0,0,0,0,0,0,0,0,0,0,0,0,0,0,0,0,0,0,0,0,0,0,0,0,0,0,0,0,0,0,0,0,0,0,0,0,0,0,0,0,0,0,0,0,0,0,0,0,0,0,0,0,0,0,0,0,0,0,0,0,0,0,0,0,0,0,0,0,0,0,0,0,0,0,0,0,0,0,0,0,0,0],"sum_hessian":[1.2060834E4,4.157181E3,7.9036533E3,3.9048224E2,3.766699E3,1.4944698E3,6.409183E3,1.560397E2,2.3444252E2,8.3922266E2,2.9274763E3,1.3748173E3,1.1965261E2,5.026667E3,1.3825162E3,3.0553184E0,1.5298439E2,1.1793358E2,1.1650895E2,7.606468E2,7.857586E1,1.1143259E3,2.604914E2,5.6605164E1,6.304745E1,3.9785568E2,4.628811E3,7.580785E2,6.2443774E2,2.7674477E0,1.5021695E2,7.655264E1,4.138093E1,1.4154352E1,1.023546E2,6.9066785E2,6.997894E1,4.101698E1,3.755888E1,2.129782E2,4.7513214E1,3.1579187E1,2.5025976E1,5.5195744E1,7.8517056E0,2.721048E2,1.2575088E2,1.177977E3,3.4508342E3,4.010038E2,3.570747E2,2.004965E2,4.2394125E2,1.3610346E0,1.4064131E0,1.4513562E2,5.081319E0,2.2695634E0,7.428308E1,4.9218106E0,3.645912E1,2.3134646E0,1.1840887E1,3.9906328E0,9.836396E1,4.8130238E1,6.425376E2,1.9440327E1,5.0538616E1,2.4486588E1,1.6530392E1,1.3903705E0,3.616851E1,1.9389813E2,1.9080053E1,4.609122E1,1.421993E0,1.4187887E1,1.0838089E1,4.7190866E0,3.132619E0,8.553723E1,4.021365E1,4.1700156E2,7.609755E2,2.6596138E3,7.9122046E2,7.115684E1,3.29847E2,1.505316E2,2.065431E2,5.1546085E1,1.4895042E2,2.745383E0,4.2119586E2],"tree_param":{"num_deleted":"0","num_feature":"12","num_nodes":"95","size_leaf_vector":"1"}},{"base_weights":[5.271296E-4,-6.2280023E-1,1.1985192E-1,-1.2450733E-1,-6.612716E-1,3.3726248E-1,-4.3131195E-2,-6.1579657E-1,1.0209465E0,-5.6858325E-1,-6.6799484E-2,-1.485073E-1,5.0438213E-1,-5.649282E-1,1.4745981E-2,1.3281497E-1,-6.606356E-2,2.9768762E-1,1.3054574E0,-6.535307E-1,5.6680065E-1,-4.361895E-1,2.905619E-1,-2.6023537E-2,7.404179E-1,-6.3486403E-1,5.688371E-1,2.500372E-1,-1.527363E-1,-5.055939E-2,1.04815654E-1,1.0627381E-1,-4.2811665E-1,6.505163E-3,1.3631121E0,-6.626525E-2,-3.1409473E-3,1.0815523E-1,1.15790345E-1,9.921663E-1,-5.467001E-1,-2.2107935E-1,1.0635056E0,8.98427E-1,-6.090585E-1,8.316713E-1,-1.7437078E-2,-6.6686206E-2,-3.3586815E-1,-1.6428426E-1,1.0586375E0,-5.887441E-1,3.3998874E-1,-3.4044284E-1,3.6653534E-1,9.367581E-3,-5.5379655E-2,3.2941196E-2,1.4204589E-1,9.1177106E-2,-3.1694043E-2,-6.0314663E-2,1.4045207E-1,-1.7152743E-2,-6.2913455E-2,-5.9142996E-2,8.576609E-2,1.2819168E-1,-4.9220532E-2,3.949475E-2,1.2750496E-1,-2.8247818E-2,-6.6528365E-2,-1.2666145E-2,9.039118E-2,4.178175E-2,-6.4897135E-2,-6.645524E-2,9.6444786E-2,-5.114333E-2,6.854736E-2,1.4747909E-1,-1.9161135E-2,-6.458826E-2,6.2542865E-3,5.9726864E-2,1.5126339E-2,2.5191E-2,-5.2181274E-2,1.6191809E-2,1.3988715E-1],"categories":[],"categories_nodes":[],"categories_segments":[],"categories_sizes":[],"default_left":[0,0,0,0,0,0,0,0,0,0,0,0,0,0,0,0,0,0,0,0,0,0,0,0,0,0,0,0,0,0,0,0,0,0,0,0,0,0,0,0,0,0,0,0,0,0,0,0,0,0,0,0,0,0,0,0,0,0,0,0,0,0,0,0,0,0,0,0,0,0,0,0,0,0,0,0,0,0,0,0,0,0,0,0,0,0,0,0,0,0,0],"id":4,"left_children":[1,3,5,7,9,11,13,15,17,19,-1,21,23,25,27,29,-1,31,33,35,37,39,41,43,45,47,49,51,53,-1,-1,-1,55,-1,57,-1,-1,59,-1,61,63,65,67,69,71,73,75,-1,77,79,81,83,85,87,89,-1,-1,-1,-1,-1,-1,-1,-1,-1,-1,-1,-1,-1,-1,-1,-1,-1,-1,-1,-1,-1,-1,-1,-1,-1,-1,-1,-1,-1,-1,-1,-1,-1,-1,-1,-1],"loss_changes":[7.8439136E2,3.240039E1,3.1366052E2,6.9665825E1,6.0028076E-1,3.0796573E2,1.528173E2,2.9905777E0,7.266159E0,1.1277424E1,0E0,1.228475E2,3.53325E2,4.0420868E1,1.7956326E2,3.8722878E0,0E0,7.005864E0,1.7994804E0,5.789032E-1,2.1541045E0,9.325855E1,1.5256668E2,4.6949478E2,1.350774E2,4.3333435E0,1.0903805E1,1.4315625E2,2.595849E2,0E0,0E0,0E0,4.9564123E-1,0E0,1.024704E0,0E0,0E0,2.2830536E0,0E0,2.8829014E1,1.6773285E1,9.343383E1,5.2818848E1,6.3381104E1,9.620087E0,1.2079199E2,5.823395E1,0E0,2.1183243E1,4.1364026E0,9.672726E0,6.883133E0,8.302864E1,2.1024112E2,1.4916612E2,0E0,0E0,0E0,0E0,0E0,0E0,0E0,0E0,0E0,0E0,0E0,0E0,0E0,0E0,0E0,0E0,0E0,0E0,0E0,0E0,0E0,0E0,0E0,0E0,0E0,0E0,0E0,0E0,0E0,0E0,0E0,0E0,0E0,0E0,0E0,0E0],"parents":[2147483647,0,0,1,1,2,2,3,3,4,4,5,5,6,6,7,7,8,8,9,9,11,11,12,12,13,13,14,14,15,15,17,17,18,18,19,19,20,20,21,21,22,22,23,23,24,24,25,25,26,26,27,27,28,28,32,32,34,34,37,37,39,39,40,40,41,41,42,42,43,43,44,44,45,45,46,46,48,48,49,49,50,50,51,51,52,52,53,53,54,54],"right_children":[2,4,6,8,10,12,14,16,18,20,-1,22,24,26,28,30,-1,32,34,36,38,40,42,44,46,48,50,52,54,-1,-1,-1,56,-1,58,-1,-1,60,-1,62,64,66,68,70,72,74,76,-1,78,80,82,84,86,88,90,-1,-1,-1,-1,-1,-1,-1,-1,-1,-1,-1,-1,-1,-1,-1,-1,-1,-1,-1,-1,-1,-1,-1,-1,-1,-1,-1,-1,-1,-1,-1,-1,-1,-1,-1,-1],"split_conditions":[2.85E7,9.75E7,1.11666664E8,1.85E7,1.13E8,-4.602784E0,-3.4379448E1,6E7,2.2E7,2.55E7,-6.6799484E-2,7.7774605E1,4.7233332E7,7.966247E1,-1.08502865E1,1.2288462E7,-6.606356E-2,8.3E7,1.56E2,1.687E3,3.958E1,-2.4477064E1,-9.636793E0,1.68E8,1.7556034E1,7.50794E1,-4.3806995E1,5.5864235E1,4.2416415E0,-5.055939E-2,1.04815654E-1,1.0627381E-1,1.07E8,6.505163E-3,8.9E7,-6.626525E-2,-3.1409473E-3,1.044E8,1.15790345E-1,-3.4379448E1,9.27375E7,8.406834E1,8.77334E1,3.6E7,1.8425E8,1.425E8,6.1781097E1,-6.6686206E-2,-3.7188046E1,2.305E8,8.924658E1,-1.2067672E1,6.481489E1,5.7438488E1,6.4543945E1,9.367581E-3,-5.5379655E-2,3.2941196E-2,1.4204589E-1,9.1177106E-2,-3.1694043E-2,-6.0314663E-2,1.4045207E-1,-1.7152743E-2,-6.2913455E-2,-5.9142996E-2,8.576609E-2,1.2819168E-1,-4.9220532E-2,3.949475E-2,1.2750496E-1,-2.8247818E-2,-6.6528365E-2,-1.2666145E-2,9.039118E-2,4.178175E-2,-6.4897135E-2,-6.645524E-2,9.6444786E-2,-5.114333E-2,6.854736E-2,1.4747909E-1,-1.9161135E-2,-6.458826E-2,6.2542865E-3,5.9726864E-2,1.5126339E-2,2.5191E-2,-5.2181274E-2,1.6191809E-2,1.3988715E-1],"split_indices":[8,7,8,8,7,11,11,7,8,8,0,10,8,10,11,8,0,7,4,4,2,11,11,7,11,10,11,10,11,0,0,0,6,0,6,0,0,7,0,11,7,10,10,8,7,7,10,0,11,7,10,11,10,10,10,0,0,0,0,0,0,0,0,0,0,0,0,0,0,0,0,0,0,0,0,0,0,0,0,0,0,0,0,0,0,0,0,0,0,0,0],"split_type":[0,0,0,0,0,0,0,0,0,0,0,0,0,0,0,0,0,0,0,0,0,0,0,0,0,0,0,0,0,0,0,0,0,0,0,0,0,0,0,0,0,0,0,0,0,0,0,0,0,0,0,0,0,0,0,0,0,0,0,0,0,0,0,0,0,0,0,0,0,0,0,0,0,0,0,0,0,0,0,0,0,0,0,0,0,0,0,0,0,0,0],"sum_hessian":[1.0543951E4,1.6934594E3,8.850492E3,1.21678375E2,1.571781E3,3.7916152E3,5.058877E3,8.547867E1,3.6199707E1,1.12086914E2,1.4596941E3,9.705655E2,2.8210496E3,5.042254E2,4.5546514E3,4.7196484E0,8.075902E1,1.0797517E1,2.540219E1,1.0467938E2,7.4075336E0,5.863742E2,3.8419128E2,8.6905365E2,1.951996E3,4.7534406E2,2.8881348E1,1.8937216E3,2.6609297E3,3.0441425E0,1.6755058E0,5.0306377E0,5.7668786E0,1.2227939E0,2.4179396E1,1.031025E2,1.5768787E0,4.8372283E0,2.570305E0,4.153636E1,5.448378E2,2.3160016E2,1.5259111E2,3.3590588E2,5.3314777E2,1.7421288E3,2.0986725E2,4.2827988E2,4.7064186E1,1.1833637E1,1.704771E1,1.828775E2,1.710844E3,1.9546915E3,7.0623834E2,1.1688292E0,4.5980496E0,1.6253822E0,2.2554012E1,1.2774435E0,3.559785E0,8.436115E0,3.3100246E1,9.870332E1,4.4613452E2,1.7274536E2,5.88548E1,1.3396004E2,1.8631071E1,1.4462106E2,1.9128482E2,7.919169E1,4.539561E2,1.2206583E2,1.620063E3,1.2444082E2,8.542642E1,3.7958298E1,9.105888E0,8.6840925E0,3.1495445E0,1.2655612E1,4.3920994E0,1.6813504E2,1.4742468E1,7.230209E2,9.878232E2,4.5811194E2,1.4965795E3,5.903776E2,1.15860695E2],"tree_param":{"num_deleted":"0","num_feature":"12","num_nodes":"91","size_leaf_vector":"1"}},{"base_weights":[-3.8473314E-4,9.4170624E-1,-3.4424865E-1,2.98696E-1,1.1031975E0,7.3032624E-1,-5.3120077E-1,-4.1382527E-1,8.4366465E-1,1.1444184E0,8.589298E-1,1.0652333E0,1.3339499E-1,-5.9844553E-1,9.018844E-2,-6.2548923E-1,4.1936848E-1,4.0220514E-1,1.0603347E0,1.028515E0,1.16359584E-1,-5.023548E-1,1.1285502E0,1.1555586E0,6.6219443E-1,9.074882E-1,-6.4899683E-1,4.2659032E-1,-6.485659E-1,6.161899E-1,-4.2437124E-1,-8.968254E-2,-7.2094417E-1,-5.569173E-1,7.568536E-1,-7.2483444E-1,1.1659204E-1,2.6338458E-1,1.1445304E-1,1.1239346E0,-6.4109063E-1,-5.695464E-1,8.867652E-2,4.8116884E-1,1.1560434E-1,1.1671938E-1,9.742442E-1,1.144843E0,-6.8083346E-1,1.0951883E0,3.290788E-2,-2.9160067E-1,-7.697492E-1,1.1060723E0,-7.3910725E-1,-2.607116E-1,-6.797986E-1,-4.288682E-1,8.540363E-1,-4.9167752E-1,1.0211323E0,-3.895245E-2,1.0013642E-1,-7.6939486E-2,-4.4943478E-2,-6.712796E-2,3.6606893E-2,-6.1621513E-2,1.1330654E-1,-7.60714E-2,-2.0669498E-2,-2.8008316E-2,9.430259E-2,6.359977E-2,1.13823414E-1,-7.390508E-2,3.0320067E-2,-7.376312E-2,-2.6721096E-2,9.839326E-2,-4.9975898E-2,1.1233666E-1,-6.37639E-2,-6.262372E-3,1.159922E-1,-2.6693905E-2,-7.6669306E-2,1.1561739E-1,6.915344E-2,7.729885E-2,-5.643025E-2,8.8481784E-2,-7.1216434E-2,-2.5172776E-2,-7.7505656E-2,1.1714444E-1,2.6540255E-2,-2.5279562E-3,-7.705706E-2,1.0015576E-1,-7.066282E-2,-3.276032E-2,-7.2291575E-2,2.2319613E-2,-7.201229E-2,1.1490764E-1,5.4562718E-2,-6.959578E-2,-6.815201E-3,-5.8655557E-3,1.1196561E-1],"categories":[],"categories_nodes":[],"categories_segments":[],"categories_sizes":[],"default_left":[0,0,0,0,0,0,0,0,0,0,0,0,0,0,0,0,0,0,0,0,0,0,0,0,0,0,0,0,0,0,0,0,0,0,0,0,0,0,0,0,0,0,0,0,0,0,0,0,0,0,0,0,0,0,0,0,0,0,0,0,0,0,0,0,0,0,0,0,0,0,0,0,0,0,0,0,0,0,0,0,0,0,0,0,0,0,0,0,0,0,0,0,0,0,0,0,0,0,0,0,0,0,0,0,0,0,0,0,0,0,0],"id":5,"left_children":[1,3,5,7,9,11,13,15,17,19,21,23,25,27,29,31,33,35,37,39,-1,41,43,45,47,49,51,53,55,57,59,61,63,65,67,69,-1,71,-1,73,75,77,-1,79,-1,-1,81,83,85,87,89,91,93,95,97,99,101,103,105,107,109,-1,-1,-1,-1,-1,-1,-1,-1,-1,-1,-1,-1,-1,-1,-1,-1,-1,-1,-1,-1,-1,-1,-1,-1,-1,-1,-1,-1,-1,-1,-1,-1,-1,-1,-1,-1,-1,-1,-1,-1,-1,-1,-1,-1,-1,-1,-1,-1,-1,-1],"loss_changes":[4.0495654E3,3.4677246E2,1.840156E3,2.6142575E2,2.5913818E1,2.7126007E2,3.260337E2,5.1768246E1,3.6045288E1,3.8769531E0,1.4360165E2,3.08891E1,2.9678702E2,3.6194043E2,2.066838E2,1.18671875E1,2.011206E1,1.1028192E2,1.6819489E1,5.3719635E1,0E0,6.583025E0,5.2388306E0,3.585205E-1,1.0548683E2,4.0388382E1,1.0297554E1,2.6122617E2,8.112866E1,9.421068E1,3.8068047E1,1.2304212E1,2.2571945E0,1.9270072E0,2.3857973E1,8.0896187E-1,0E0,9.749298E0,0E0,1.4742737E0,1.9466233E0,2.990343E0,0E0,7.878002E0,0E0,0E0,1.2446758E1,2.2429962E0,1.3351879E0,4.1905975E0,2.0123306E1,3.1890099E1,3.0422974E-1,1.112561E1,2.7131119E0,2.831712E2,9.4082275E1,1.3580586E1,2.7388489E1,3.1930801E1,1.927803E0,0E0,0E0,0E0,0E0,0E0,0E0,0E0,0E0,0E0,0E0,0E0,0E0,0E0,0E0,0E0,0E0,0E0,0E0,0E0,0E0,0E0,0E0,0E0,0E0,0E0,0E0,0E0,0E0,0E0,0E0,0E0,0E0,0E0,0E0,0E0,0E0,0E0,0E0,0E0,0E0,0E0,0E0,0E0,0E0,0E0,0E0,0E0,0E0,0E0,0E0],"parents":[2147483647,0,0,1,1,2,2,3,3,4,4,5,5,6,6,7,7,8,8,9,9,10,10,11,11,12,12,13,13,14,14,15,15,16,16,17,17,18,18,19,19,21,21,22,22,23,23,24,24,25,25,26,26,27,27,28,28,29,29,30,30,31,31,32,32,33,33,34,34,35,35,37,37,39,39,40,40,41,41,43,43,46,46,47,47,48,48,49,49,50,50,51,51,52,52,53,53,54,54,55,55,56,56,57,57,58,58,59,59,60,60],"right_children":[2,4,6,8,10,12,14,16,18,20,22,24,26,28,30,32,34,36,38,40,-1,42,44,46,48,50,52,54,56,58,60,62,64,66,68,70,-1,72,-1,74,76,78,-1,80,-1,-1,82,84,86,88,90,92,94,96,98,100,102,104,106,108,110,-1,-1,-1,-1,-1,-1,-1,-1,-1,-1,-1,-1,-1,-1,-1,-1,-1,-1,-1,-1,-1,-1,-1,-1,-1,-1,-1,-1,-1,-1,-1,-1,-1,-1,-1,-1,-1,-1,-1,-1,-1,-1,-1,-1,-1,-1,-1,-1,-1,-1],"split_conditions":[4.7233332E7,5.9441457E0,-2.4991589E1,7.966247E1,3.6666668E7,7.011812E1,1.2768605E1,1.503E8,2E0,1.2575E8,1.7E8,-2.79048E1,-3.4379448E1,4.7932583E1,8E7,2.85E7,7.599044E1,5.019776E-1,-1.0619413E1,2.85E7,1.16359584E-1,7.405574E1,1.7833333E8,6.915302E1,6.608842E1,7.8622406E1,-3.0982944E1,5.019776E-1,-1.9981585E1,2.25E8,6.587182E1,1E8,1.32E8,1.1E1,2.0448492E0,3.3753207E-1,1.1659204E-1,9.7948685E1,1.1445304E-1,6.9E7,1.25E8,1.52E8,8.867652E-2,4.4E7,1.1560434E-1,1.1671938E-1,-2.906838E1,2.2E8,6.758502E1,-3.6104233E1,-4.2368595E1,7.222829E1,6E7,-9.227669E-1,3.9451473E1,6.2719524E1,6.3E7,5.2E7,6.1E7,1.9261074E1,1.2983617E1,-3.895245E-2,1.0013642E-1,-7.6939486E-2,-4.4943478E-2,-6.712796E-2,3.6606893E-2,-6.1621513E-2,1.1330654E-1,-7.60714E-2,-2.0669498E-2,-2.8008316E-2,9.430259E-2,6.359977E-2,1.13823414E-1,-7.390508E-2,3.0320067E-2,-7.376312E-2,-2.6721096E-2,9.839326E-2,-4.9975898E-2,1.1233666E-1,-6.37639E-2,-6.262372E-3,1.159922E-1,-2.6693905E-2,-7.6669306E-2,1.1561739E-1,6.915344E-2,7.729885E-2,-5.643025E-2,8.8481784E-2,-7.1216434E-2,-2.5172776E-2,-7.7505656E-2,1.1714444E-1,2.6540255E-2,-2.5279562E-3,-7.705706E-2,1.0015576E-1,-7.066282E-2,-3.276032E-2,-7.2291575E-2,2.2319613E-2,-7.201229E-2,1.1490764E-1,5.4562718E-2,-6.959578E-2,-6.815201E-3,-5.8655557E-3,1.1196561E-1],"split_indices":[8,11,11,10,8,10,11,7,0,7,7,11,11,10,8,8,10,11,11,8,0,10,7,10,10,10,11,11,11,7,10,7,7,9,11,11,0,10,0,7,7,7,0,8,0,0,11,6,10,11,11,10,7,11,10,10,8,8,8,11,11,0,0,0,0,0,0,0,0,0,0,0,0,0,0,0,0,0,0,0,0,0,0,0,0,0,0,0,0,0,0,0,0,0,0,0,0,0,0,0,0,0,0,0,0,0,0,0,0,0,0],"split_type":[0,0,0,0,0,0,0,0,0,0,0,0,0,0,0,0,0,0,0,0,0,0,0,0,0,0,0,0,0,0,0,0,0,0,0,0,0,0,0,0,0,0,0,0,0,0,0,0,0,0,0,0,0,0,0,0,0,0,0,0,0,0,0,0,0,0,0,0,0,0,0,0,0,0,0,0,0,0,0,0,0,0,0,0,0,0,0,0,0,0,0,0,0,0,0,0,0,0,0,0,0,0,0,0,0,0,0,0,0,0,0],"sum_hessian":[1.2498545E4,3.341642E3,9.156903E3,6.713549E2,2.670287E3,1.3565771E3,7.800326E3,2.910548E2,3.8030008E2,2.2815786E3,3.8870853E2,8.6851434E2,4.8806284E2,7.0386606E3,7.616652E2,2.3229265E2,5.876217E1,1.2614313E2,2.5415695E2,3.316724E2,1.9499062E3,6.411839E1,3.2459012E2,7.079813E2,1.60533E2,2.4525212E2,2.4281071E2,3.2776953E2,6.710891E3,3.7654736E2,3.8511783E2,3.541895E1,1.968737E2,1.4927965E1,4.3834206E1,5.09724E1,7.517073E1,2.4679806E1,2.2947714E2,3.140509E2,1.76215E1,6.1722855E1,2.3955348E0,1.3976982E1,3.1061313E2,6.6017926E2,4.78021E1,1.1820194E2,4.2331066E1,2.0170953E2,4.3542595E1,6.218221E1,1.806285E2,2.0710168E2,1.2066787E2,5.0083008E2,6.210061E3,6.966178E1,3.068856E2,3.6861407E2,1.6503742E1,2.8287851E1,7.1310987E0,1.6550562E2,3.1368092E1,1.3524879E1,1.4030858E0,9.2900715E0,3.4544132E1,4.7233467E1,3.738933E0,1.4040426E1,1.0639379E1,1.0236363E1,3.0381454E2,1.6162193E1,1.4593062E0,3.8743477E1,2.2979382E1,9.238717E0,4.738266E0,4.4031616E1,3.7704864E0,1.4190264E0,1.1678291E2,7.978575E0,3.435249E1,1.7361488E2,2.809465E1,1.9313906E1,2.422869E1,1.6084917E1,4.6097294E1,2.322986E0,1.7830551E2,1.9179395E2,1.530773E1,5.170281E0,1.1549759E2,1.3041484E2,3.7041522E2,6.782746E2,5.5317866E3,2.1580585E1,4.8081192E1,1.5544913E2,1.5143646E2,2.4823766E2,1.2037643E2,1.4137827E0,1.5089959E1],"tree_param":{"num_deleted":"0","num_feature":"12","num_nodes":"111","size_leaf_vector":"1"}},{"base_weights":[-2.3379775E-4,-5.61425E-1,2.823518E-1,3.9723918E-1,-6.6551E-1,-5.36944E-1,4.6389735E-1,1.0663409E0,-7.035586E-2,-5.2308947E-1,-7.065782E-2,-6.4069474E-1,2.848584E-1,5.735672E-1,-1.3982472E-1,-5.3103246E-2,1.0991851E0,4.8371497E-1,-6.5728945E-1,-6.569446E-1,6.904071E-1,-7.0421976E-1,-2.888051E-1,-4.445713E-1,1.0427419E0,-4.373589E-1,6.586915E-1,4.3130788E-1,-5.9923744E-1,2.0131193E-1,1.1140184E0,1.0144374E0,-5.607405E-1,-3.4284085E-1,-6.973881E-1,-6.942113E-1,-2.9359254E-1,2.9746792E-1,1.0937002E0,-7.101687E-2,-5.438573E-1,-7.1382296E-1,1.0756576E0,-7.111516E-2,1.7417566E-1,1.1086254E0,3.9676765E-1,-7.1730256E-2,9.946742E-3,2.509347E-1,7.456619E-1,7.831769E-1,-5.2761375E-3,-3.0848035E-1,-7.013644E-1,-4.3816645E-2,7.352219E-2,1.1330011E-1,4.6845075E-2,-5.3322237E-2,1.0666781E-1,3.7630223E-2,-6.992551E-2,9.2783496E-2,-6.588836E-2,-3.7849437E-2,-7.06447E-2,-5.0305076E-2,-7.079345E-2,6.386552E-2,-6.735152E-2,9.44799E-2,-6.995359E-2,3.572681E-2,1.1115762E-1,-6.9990896E-2,8.845205E-2,-7.198676E-2,-3.5933208E-2,5.5974312E-2,1.1385969E-1,-4.764576E-2,9.51174E-2,8.113348E-2,1.1694957E-1,9.994634E-2,-5.630284E-2,-7.361682E-2,8.475115E-2,-6.546045E-2,8.646951E-2,3.3220425E-2,8.632496E-2,5.8253235E-3,8.8525146E-2,6.0218748E-2,-7.257182E-2,1.0716697E-1,-6.390003E-2,-5.548158E-2,-7.225307E-2],"categories":[],"categories_nodes":[],"categories_segments":[],"categories_sizes":[],"default_left":[0,0,0,0,0,0,0,0,0,0,0,0,0,0,0,0,0,0,0,0,0,0,0,0,0,0,0,0,0,0,0,0,0,0,0,0,0,0,0,0,0,0,0,0,0,0,0,0,0,0,0,0,0,0,0,0,0,0,0,0,0,0,0,0,0,0,0,0,0,0,0,0,0,0,0,0,0,0,0,0,0,0,0,0,0,0,0,0,0,0,0,0,0,0,0,0,0,0,0,0,0],"id":6,"left_children":[1,3,5,7,9,11,13,15,17,19,-1,21,23,25,27,-1,29,31,33,35,37,39,41,43,45,47,49,51,53,55,57,59,61,63,65,67,69,71,73,-1,75,77,79,-1,81,83,85,-1,87,89,91,93,95,97,99,-1,-1,-1,-1,-1,-1,-1,-1,-1,-1,-1,-1,-1,-1,-1,-1,-1,-1,-1,-1,-1,-1,-1,-1,-1,-1,-1,-1,-1,-1,-1,-1,-1,-1,-1,-1,-1,-1,-1,-1,-1,-1,-1,-1,-1,-1],"loss_changes":[1.8925216E3,3.990664E2,1.1808132E3,1.22738815E2,2.0719727E1,1.22977936E2,4.303086E2,9.048386E0,7.567394E1,1.3216397E2,0E0,2.8388672E1,9.009443E1,4.735177E2,2.6257352E2,0E0,1.8855896E0,6.6960945E1,1.185051E0,9.692139E0,1.2517681E1,6.467285E-1,1.1518043E2,1.38668995E1,2.9569702E0,5.356308E1,1.79698E2,6.8558365E1,1.624826E1,1.617908E0,1.3763428E0,7.01857E0,5.5845575E0,6.5311747E0,1.9203186E-2,1.3807678E0,2.5122166E1,2.8040085E1,1.2446594E-1,0E0,1.020394E1,6.4956665E-2,8.97171E-1,0E0,1.354228E1,3.517151E-1,5.7367067E0,0E0,1.0412341E2,4.970062E2,2.0294775E2,1.8233597E1,8.803027E1,6.724689E1,8.695221E-1,0E0,0E0,0E0,0E0,0E0,0E0,0E0,0E0,0E0,0E0,0E0,0E0,0E0,0E0,0E0,0E0,0E0,0E0,0E0,0E0,0E0,0E0,0E0,0E0,0E0,0E0,0E0,0E0,0E0,0E0,0E0,0E0,0E0,0E0,0E0,0E0,0E0,0E0,0E0,0E0,0E0,0E0,0E0,0E0,0E0,0E0],"parents":[2147483647,0,0,1,1,2,2,3,3,4,4,5,5,6,6,7,7,8,8,9,9,11,11,12,12,13,13,14,14,16,16,17,17,18,18,19,19,20,20,21,21,22,22,23,23,24,24,25,25,26,26,27,27,28,28,29,29,30,30,31,31,32,32,33,33,34,34,35,35,36,36,37,37,38,38,40,40,41,41,42,42,44,44,45,45,46,46,48,48,49,49,50,50,51,51,52,52,53,53,54,54],"right_children":[2,4,6,8,10,12,14,16,18,20,-1,22,24,26,28,-1,30,32,34,36,38,40,42,44,46,48,50,52,54,56,58,60,62,64,66,68,70,72,74,-1,76,78,80,-1,82,84,86,-1,88,90,92,94,96,98,100,-1,-1,-1,-1,-1,-1,-1,-1,-1,-1,-1,-1,-1,-1,-1,-1,-1,-1,-1,-1,-1,-1,-1,-1,-1,-1,-1,-1,-1,-1,-1,-1,-1,-1,-1,-1,-1,-1,-1,-1,-1,-1,-1,-1,-1,-1],"split_conditions":[6.8333336E7,-4.443155E0,-2.2137033E1,7.7774605E1,1.425E8,7.7774605E1,7.1786623E0,-2.4991589E1,-9.2432995E0,5E7,-7.065782E-2,-2.4477064E1,-2.9689186E1,5.5183083E1,5.958003E1,-5.3103246E-2,6.4543945E1,2E0,7.8622406E1,4.05E7,5.7E7,7.522382E1,7.330435E1,2E0,9.375123E1,-1.9980358E0,-1.4636473E1,1.4455757E1,6.1855618E1,1.25E8,-4.602784E0,-2.9689186E1,-1.8828142E1,-7.7078395E0,-9.04673E0,-1.2250019E0,1.1E8,1.2575E8,2E-1,-7.101687E-2,-2.612633E1,7.222829E1,7.405574E1,-7.111516E-2,-3.8246155E1,-2.79048E1,-2.4477064E1,-7.1730256E-2,4.7932583E1,6.7286156E1,9.95E7,4.1065533E1,5.5183083E1,9.243237E0,7.978435E0,-4.3816645E-2,7.352219E-2,1.1330011E-1,4.6845075E-2,-5.3322237E-2,1.0666781E-1,3.7630223E-2,-6.992551E-2,9.2783496E-2,-6.588836E-2,-3.7849437E-2,-7.06447E-2,-5.0305076E-2,-7.079345E-2,6.386552E-2,-6.735152E-2,9.44799E-2,-6.995359E-2,3.572681E-2,1.1115762E-1,-6.9990896E-2,8.845205E-2,-7.198676E-2,-3.5933208E-2,5.5974312E-2,1.1385969E-1,-4.764576E-2,9.51174E-2,8.113348E-2,1.1694957E-1,9.994634E-2,-5.630284E-2,-7.361682E-2,8.475115E-2,-6.546045E-2,8.646951E-2,3.3220425E-2,8.632496E-2,5.8253235E-3,8.8525146E-2,6.0218748E-2,-7.257182E-2,1.0716697E-1,-6.390003E-2,-5.548158E-2,-7.225307E-2],"split_indices":[8,11,11,10,7,10,11,11,11,8,0,11,11,10,10,0,10,0,10,8,8,10,10,0,10,11,11,11,10,6,11,11,11,11,11,11,7,7,3,0,11,10,10,0,11,11,11,0,10,10,8,10,10,11,11,0,0,0,0,0,0,0,0,0,0,0,0,0,0,0,0,0,0,0,0,0,0,0,0,0,0,0,0,0,0,0,0,0,0,0,0,0,0,0,0,0,0,0,0,0,0],"split_type":[0,0,0,0,0,0,0,0,0,0,0,0,0,0,0,0,0,0,0,0,0,0,0,0,0,0,0,0,0,0,0,0,0,0,0,0,0,0,0,0,0,0,0,0,0,0,0,0,0,0,0,0,0,0,0,0,0,0,0,0,0,0,0,0,0,0,0,0,0,0,0,0,0,0,0,0,0,0,0,0,0,0,0,0,0,0,0,0,0,0,0,0,0,0,0,0,0,0,0,0,0],"sum_hessian":[1.1931835E4,3.9957083E3,7.9361265E3,3.9106158E2,3.6046467E3,1.4392023E3,6.4969243E3,1.6034154E2,2.3072005E2,8.098612E2,2.7947854E3,1.2780692E3,1.6113307E2,5.4981934E3,9.9873114E2,2.924817E0,1.5741672E2,1.1877304E2,1.1194701E2,7.298171E2,8.0044075E1,1.0817793E3,1.9628998E2,8.231851E1,7.881456E1,4.266936E2,5.0714995E3,4.452574E2,5.5347375E2,2.795161E0,1.5462157E2,7.877406E1,3.9998974E1,1.3741086E1,9.820592E1,6.6110144E2,6.871563E1,4.1422565E1,3.8621513E1,1.0397787E3,4.2000576E1,1.5003293E2,4.6257057E1,5.742727E1,2.4891249E1,7.087023E1,7.9443274E0,2.6207306E2,1.6462053E2,8.92225E2,4.1792744E3,2.4610934E2,1.9914804E2,1.4491602E2,4.0855774E2,1.3534374E0,1.4417236E0,1.4947134E2,5.150212E0,2.2715344E0,7.650253E1,4.9301457E0,3.506883E1,2.3513799E0,1.1389706E1,3.8944159E0,9.43115E1,4.6803078E1,6.142984E2,1.969858E1,4.901705E1,2.5147346E1,1.6275217E1,1.4126124E0,3.72089E1,3.8323673E1,3.6769001E0,1.465041E2,3.528819E0,6.105283E0,4.0151775E1,1.375775E1,1.1133498E1,1.44798E1,5.6390434E1,4.854596E0,3.0897312E0,8.712731E1,7.7493225E1,3.6041046E2,5.318145E2,9.2625055E2,3.2530242E3,3.05706E1,2.1553874E2,1.0813485E2,9.101319E1,2.756609E1,1.1734993E2,5.4995945E1,3.535618E2],"tree_param":{"num_deleted":"0","num_feature":"12","num_nodes":"101","size_leaf_vector":"1"}},{"base_weights":[1.8364075E-3,-6.049518E-1,1.11971505E-1,-1.14115134E-1,-6.4411545E-1,-4.5613915E-2,3.0221447E-1,-5.9874475E-1,9.224944E-1,-5.497082E-1,-6.510103E-2,-5.3089756E-1,9.635688E-3,4.4991884E-1,-1.2062416E-1,1.3001984E-1,-6.4454235E-2,2.8370008E-1,1.1617857E0,-6.363803E-1,5.345418E-1,-6.1470675E-1,4.7693527E-1,1.8641333E-1,-1.4194167E-1,2.642485E-3,6.693204E-1,5.923813E-1,-2.6528245E-1,-4.9399246E-2,9.768271E-2,9.718485E-2,-4.133401E-1,5.7068537E-3,1.2110549E0,-6.457668E-2,-2.6507068E-3,1.1201956E-1,1.04897335E-1,-6.498092E-2,-2.7391967E-1,-1.5212949E-1,9.0454566E-1,-6.303137E-1,2.5425732E-1,-2.952543E-1,5.9644544E-1,7.4247086E-1,-5.2734077E-1,4.8002303E-1,1.0266222E0,1.2565286E0,-3.4403646E-1,-4.1478607E-1,5.2657384E-1,-5.3944886E-2,9.254072E-3,3.1197626E-2,1.2582557E-1,6.384079E-2,-4.737568E-2,-6.4397946E-2,9.4773956E-2,-5.3766485E-2,8.266422E-2,1.1894735E-1,1.4511803E-3,-6.548526E-2,-3.639139E-2,3.834212E-2,-9.615163E-3,4.857118E-2,-5.04177E-2,-1.899487E-2,9.7246E-2,3.323187E-2,1.2536356E-1,-1.5653402E-2,-6.6230305E-2,-5.3370047E-2,6.9665276E-2,1.351424E-1,1.4924576E-2,1.6084248E-2,1.4946696E-1,-4.6318233E-2,9.063385E-2,-5.7085462E-2,9.045884E-3,-1.3065316E-2,1.08814776E-1],"categories":[],"categories_nodes":[],"categories_segments":[],"categories_sizes":[],"default_left":[0,0,0,0,0,0,0,0,0,0,0,0,0,0,0,0,0,0,0,0,0,0,0,0,0,0,0,0,0,0,0,0,0,0,0,0,0,0,0,0,0,0,0,0,0,0,0,0,0,0,0,0,0,0,0,0,0,0,0,0,0,0,0,0,0,0,0,0,0,0,0,0,0,0,0,0,0,0,0,0,0,0,0,0,0,0,0,0,0,0,0],"id":7,"left_children":[1,3,5,7,9,11,13,15,17,19,-1,21,23,25,27,29,-1,31,33,35,37,39,41,43,45,47,49,51,53,-1,-1,-1,55,-1,57,-1,-1,59,-1,-1,61,63,65,67,69,71,73,75,77,79,81,83,85,87,89,-1,-1,-1,-1,-1,-1,-1,-1,-1,-1,-1,-1,-1,-1,-1,-1,-1,-1,-1,-1,-1,-1,-1,-1,-1,-1,-1,-1,-1,-1,-1,-1,-1,-1,-1,-1],"loss_changes":[6.9986456E2,3.085254E1,2.6574316E2,6.0885204E1,6.118164E-1,1.3001044E2,2.5086612E2,2.8353863E0,5.5788574E0,1.0472443E1,0E0,4.2156982E1,1.1669915E2,2.9208563E2,1.07469696E2,3.4980888E0,0E0,6.0889597E0,1.4438133E0,5.570259E-1,1.7353344E0,5.3010254E0,1.0524685E1,1.1155893E2,2.6561124E2,3.8485837E2,1.3457013E2,1.0976232E2,1.0269743E2,0E0,0E0,0E0,4.7045648E-1,0E0,7.346039E-1,0E0,0E0,2.0908E0,0E0,0E0,2.0728487E1,6.6640863E0,5.848934E0,7.715645E-1,8.408318E1,3.1714996E2,1.1948929E2,8.547186E1,2.8515808E1,2.8743967E2,1.9662512E2,2.6651947E1,1.1403907E1,5.751332E1,5.1045345E1,0E0,0E0,0E0,0E0,0E0,0E0,0E0,0E0,0E0,0E0,0E0,0E0,0E0,0E0,0E0,0E0,0E0,0E0,0E0,0E0,0E0,0E0,0E0,0E0,0E0,0E0,0E0,0E0,0E0,0E0,0E0,0E0,0E0,0E0,0E0,0E0],"parents":[2147483647,0,0,1,1,2,2,3,3,4,4,5,5,6,6,7,7,8,8,9,9,11,11,12,12,13,13,14,14,15,15,17,17,18,18,19,19,20,20,21,21,22,22,23,23,24,24,25,25,26,26,27,27,28,28,32,32,34,34,37,37,40,40,41,41,42,42,43,43,44,44,45,45,46,46,47,47,48,48,49,49,50,50,51,51,52,52,53,53,54,54],"right_children":[2,4,6,8,10,12,14,16,18,20,-1,22,24,26,28,30,-1,32,34,36,38,40,42,44,46,48,50,52,54,-1,-1,-1,56,-1,58,-1,-1,60,-1,-1,62,64,66,68,70,72,74,76,78,80,82,84,86,88,90,-1,-1,-1,-1,-1,-1,-1,-1,-1,-1,-1,-1,-1,-1,-1,-1,-1,-1,-1,-1,-1,-1,-1,-1,-1,-1,-1,-1,-1,-1,-1,-1,-1,-1,-1,-1],"split_conditions":[2.85E7,9.75E7,-1.848179E0,1.85E7,1.13E8,-3.4379448E1,1.4666667E8,6E7,2.2E7,2.55E7,-6.510103E-2,7.8622406E1,-1.2811247E1,5.1E7,4.7932583E1,1.2288462E7,-6.4454235E-2,8.3E7,1.56E2,1.687E3,3.958E1,7.50794E1,-4.2368595E1,5.5864235E1,7.522382E1,1.7717858E8,6.915302E1,9.0095625E0,9.885659E0,-4.9399246E-2,9.768271E-2,9.718485E-2,4.0118332E1,5.7068537E-3,8.9E7,-6.457668E-2,-2.6507068E-3,1.35E8,1.04897335E-1,-6.498092E-2,-3.7188046E1,2.305E8,8.924658E1,-1.4400841E1,7.428145E1,5.9107235E1,-8.851539E0,4E7,2.0166667E8,3.1534927E0,5.7539988E0,5.019776E-1,2.8892931E1,6.47163E1,5.7167313E1,-5.3944886E-2,9.254072E-3,3.1197626E-2,1.2582557E-1,6.384079E-2,-4.737568E-2,-6.4397946E-2,9.4773956E-2,-5.3766485E-2,8.266422E-2,1.1894735E-1,1.4511803E-3,-6.548526E-2,-3.639139E-2,3.834212E-2,-9.615163E-3,4.857118E-2,-5.04177E-2,-1.899487E-2,9.7246E-2,3.323187E-2,1.2536356E-1,-1.5653402E-2,-6.6230305E-2,-5.3370047E-2,6.9665276E-2,1.351424E-1,1.4924576E-2,1.6084248E-2,1.4946696E-1,-4.6318233E-2,9.063385E-2,-5.7085462E-2,9.045884E-3,-1.3065316E-2,1.08814776E-1],"split_indices":[8,7,11,8,7,11,8,7,8,8,0,10,11,8,10,8,0,7,4,4,2,10,11,10,10,7,10,11,11,0,0,0,2,0,6,0,0,6,0,0,11,7,10,11,10,10,11,8,7,11,11,11,11,10,10,0,0,0,0,0,0,0,0,0,0,0,0,0,0,0,0,0,0,0,0,0,0,0,0,0,0,0,0,0,0,0,0,0,0,0,0],"split_type":[0,0,0,0,0,0,0,0,0,0,0,0,0,0,0,0,0,0,0,0,0,0,0,0,0,0,0,0,0,0,0,0,0,0,0,0,0,0,0,0,0,0,0,0,0,0,0,0,0,0,0,0,0,0,0,0,0,0,0,0,0,0,0,0,0,0,0,0,0,0,0,0,0,0,0,0,0,0,0,0,0,0,0,0,0,0,0,0,0,0,0],"sum_hessian":[1.0470506E4,1.6078085E3,8.862697E3,1.1909607E2,1.4887124E3,4.8478228E3,4.0148743E3,8.144281E1,3.7653263E1,1.0681961E2,1.3818928E3,4.9463126E2,4.353192E3,2.9754407E3,1.0394336E3,4.7067375E0,7.673607E1,1.0856673E1,2.679659E1,9.929527E1,7.524339E0,4.570168E2,3.761444E1,2.0094424E3,2.3437493E3,9.79541E2,1.9958997E3,1.7479456E2,8.6463904E2,2.9497259E0,1.7570119E0,5.2647915E0,5.5918818E0,1.2362238E0,2.5560368E1,9.773224E1,1.5630349E0,4.7998195E0,2.72452E0,4.1351617E2,4.3500652E1,1.5482342E1,2.2132097E1,1.5348247E2,1.85596E3,1.9412784E3,4.024709E2,4.0866522E2,5.708758E2,1.3062147E3,6.89685E2,1.0206434E2,7.273022E1,7.277205E2,1.3691852E2,4.4229493E0,1.1689328E0,1.6545296E0,2.3905838E1,2.4807382E0,2.3190813E0,3.3750088E1,9.750566E0,1.1430553E1,4.0517883E0,1.651022E1,5.6218777E0,1.3920197E2,1.4280508E1,1.3560234E3,4.9993652E2,4.0944025E2,1.5318381E3,1.3035085E2,2.7212003E2,2.2765102E2,1.810142E2,1.529121E2,4.179637E2,2.2972905E2,1.0764856E3,5.0295312E2,1.8673189E2,1.8521656E1,8.354268E1,6.697761E1,5.7526054E0,5.558808E2,1.7183969E2,6.3440052E1,7.347847E1],"tree_param":{"num_deleted":"0","num_feature":"12","num_nodes":"91","size_leaf_vector":"1"}},{"base_weights":[-1.3330897E-3,8.5438335E-1,-3.251998E-1,2.7411675E-1,9.9716413E-1,6.6622525E-1,-5.0448185E-1,-6.514447E-1,6.317735E-1,1.0336363E0,7.796892E-1,9.716399E-1,1.1183323E-1,-5.7131433E-1,7.30063E-2,-7.218259E-1,-7.273591E-2,2.8338617E-1,1.0069438E0,9.2852414E-1,1.0510086E-1,-4.7515973E-1,1.0181582E0,1.05197E0,6.1040074E-1,8.2142943E-1,-6.3172597E-1,3.9551836E-1,-6.202944E-1,6.308139E-1,-3.560028E-1,-7.385465E-1,-2.2848487E-1,-7.104925E-2,1.0111649E-1,-7.25225E-1,8.973965E-1,7.051961E-1,1.0513359E0,1.0146494E0,-6.2671345E-1,-5.419773E-1,8.590038E-2,4.2829356E-1,1.0431188E0,1.0626494E-1,8.856902E-1,1.0567945E0,-6.6808367E-1,9.878165E-1,2.7442345E-2,-2.908155E-1,-7.49022E-1,1.0113407E0,-7.194237E-1,-2.6037636E-1,-6.5253013E-1,-2.1215726E-1,9.568404E-1,-4.442844E-1,1.0044342E0,-7.438921E-2,-3.651958E-2,-6.1988544E-2,7.5058E-2,-7.436238E-2,-3.600433E-2,1.4828633E-3,9.849365E-2,-6.685579E-2,1.0620779E-1,7.89947E-2,1.0678353E-1,1.04301445E-1,7.626348E-2,-7.2324246E-2,2.8709128E-2,-1.8652095E-2,-6.813797E-2,8.36242E-2,-6.3664936E-2,7.477612E-2,1.0517186E-1,1.02307044E-1,-6.2875114E-2,-6.96692E-3,1.0707857E-1,-7.098252E-2,3.727885E-3,1.02774024E-1,4.899707E-2,7.0276424E-2,-5.3907376E-2,8.148678E-2,-6.973818E-2,-2.3651717E-2,-7.5437635E-2,1.0747075E-1,2.8696109E-2,-2.595659E-3,-7.511699E-2,9.32857E-2,-6.585234E-2,-2.6576355E-2,-6.903031E-2,3.5469692E-2,-6.745895E-2,6.1813004E-2,1.0822209E-1,-7.043374E-2,-7.2353566E-3,1.0638096E-1,4.5384042E-2],"categories":[],"categories_nodes":[],"categories_segments":[],"categories_sizes":[],"default_left":[0,0,0,0,0,0,0,0,0,0,0,0,0,0,0,0,0,0,0,0,0,0,0,0,0,0,0,0,0,0,0,0,0,0,0,0,0,0,0,0,0,0,0,0,0,0,0,0,0,0,0,0,0,0,0,0,0,0,0,0,0,0,0,0,0,0,0,0,0,0,0,0,0,0,0,0,0,0,0,0,0,0,0,0,0,0,0,0,0,0,0,0,0,0,0,0,0,0,0,0,0,0,0,0,0,0,0,0,0,0,0,0,0],"id":8,"left_children":[1,3,5,7,9,11,13,15,17,19,21,23,25,27,29,31,33,35,37,39,-1,41,43,45,47,49,51,53,55,57,59,61,63,-1,-1,65,67,69,71,73,75,77,-1,79,81,-1,83,85,87,89,91,93,95,97,99,101,103,105,107,109,111,-1,-1,-1,-1,-1,-1,-1,-1,-1,-1,-1,-1,-1,-1,-1,-1,-1,-1,-1,-1,-1,-1,-1,-1,-1,-1,-1,-1,-1,-1,-1,-1,-1,-1,-1,-1,-1,-1,-1,-1,-1,-1,-1,-1,-1,-1,-1,-1,-1,-1,-1,-1],"loss_changes":[3.4180493E3,2.8028125E2,1.5906393E3,2.222258E2,2.0746338E1,2.3195923E2,2.9249622E2,7.574318E0,6.295134E1,3.2675781E0,1.18479996E2,2.499884E1,2.5799158E2,3.2186768E2,1.885261E2,1.2074814E0,1.5522504E1,1.5687054E2,2.3737946E0,4.5933838E1,0E0,6.1397142E0,4.4364624E0,3.4002686E-1,9.380457E1,3.3017166E1,9.3333435E0,2.2599484E2,7.483325E1,9.4317474E1,5.3942486E1,4.949951E-2,3.1159575E0,0E0,0E0,3.7733078E-1,1.2134201E1,1.682177E1,2.2033691E-2,1.4978943E0,1.8274307E0,2.9068375E0,0E0,7.1192093E0,2.0019531E-2,0E0,1.0951561E1,1.9863281E0,1.2874985E0,3.6060638E0,1.7351627E1,2.8789446E1,3.0749512E-1,9.412048E0,2.5633202E0,2.5386313E2,8.648682E1,2.5488935E1,9.825653E0,4.047303E1,4.145832E-1,0E0,0E0,0E0,0E0,0E0,0E0,0E0,0E0,0E0,0E0,0E0,0E0,0E0,0E0,0E0,0E0,0E0,0E0,0E0,0E0,0E0,0E0,0E0,0E0,0E0,0E0,0E0,0E0,0E0,0E0,0E0,0E0,0E0,0E0,0E0,0E0,0E0,0E0,0E0,0E0,0E0,0E0,0E0,0E0,0E0,0E0,0E0,0E0,0E0,0E0,0E0,0E0],"parents":[2147483647,0,0,1,1,2,2,3,3,4,4,5,5,6,6,7,7,8,8,9,9,10,10,11,11,12,12,13,13,14,14,15,15,16,16,17,17,18,18,19,19,21,21,22,22,23,23,24,24,25,25,26,26,27,27,28,28,29,29,30,30,31,31,32,32,35,35,36,36,37,37,38,38,39,39,40,40,41,41,43,43,44,44,46,46,47,47,48,48,49,49,50,50,51,51,52,52,53,53,54,54,55,55,56,56,57,57,58,58,59,59,60,60],"right_children":[2,4,6,8,10,12,14,16,18,20,22,24,26,28,30,32,34,36,38,40,-1,42,44,46,48,50,52,54,56,58,60,62,64,-1,-1,66,68,70,72,74,76,78,-1,80,82,-1,84,86,88,90,92,94,96,98,100,102,104,106,108,110,112,-1,-1,-1,-1,-1,-1,-1,-1,-1,-1,-1,-1,-1,-1,-1,-1,-1,-1,-1,-1,-1,-1,-1,-1,-1,-1,-1,-1,-1,-1,-1,-1,-1,-1,-1,-1,-1,-1,-1,-1,-1,-1,-1,-1,-1,-1,-1,-1,-1,-1,-1,-1],"split_conditions":[4.7233332E7,5.9441457E0,-2.4991589E1,7.686771E1,3.6666668E7,7.011812E1,1.2525763E1,7.599044E1,5.019776E-1,1.2575E8,1.7E8,-2.79048E1,-3.4379448E1,4.7932583E1,7.275E7,5.7539988E0,3.6886907E0,2E0,7.8622406E1,2.85E7,1.0510086E-1,7.405574E1,1.7833333E8,6.915302E1,6.608842E1,7.8622406E1,-3.0982944E1,5.019776E-1,-1.958363E1,2.38E8,6.587182E1,7.522382E1,7.405574E1,-7.104925E-2,1.0111649E-1,3.3753207E-1,-1.3569709E1,2.0448492E0,9.407697E-1,2.0932292E7,1.25E8,3.94E7,8.590038E-2,4.5E7,1.815E8,1.0626494E-1,-2.906838E1,2.2E8,4.6875E8,-3.5326454E1,-4.2368595E1,7.222829E1,6E7,-1.2250019E0,3.9451473E1,6.2558334E1,5.9966668E7,5.5E7,2.625E8,1.7892973E1,5.4545455E0,-7.438921E-2,-3.651958E-2,-6.1988544E-2,7.5058E-2,-7.436238E-2,-3.600433E-2,1.4828633E-3,9.849365E-2,-6.685579E-2,1.0620779E-1,7.89947E-2,1.0678353E-1,1.04301445E-1,7.626348E-2,-7.2324246E-2,2.8709128E-2,-1.8652095E-2,-6.813797E-2,8.36242E-2,-6.3664936E-2,7.477612E-2,1.0517186E-1,1.02307044E-1,-6.2875114E-2,-6.96692E-3,1.0707857E-1,-7.098252E-2,3.727885E-3,1.02774024E-1,4.899707E-2,7.0276424E-2,-5.3907376E-2,8.148678E-2,-6.973818E-2,-2.3651717E-2,-7.5437635E-2,1.0747075E-1,2.8696109E-2,-2.595659E-3,-7.511699E-2,9.32857E-2,-6.585234E-2,-2.6576355E-2,-6.903031E-2,3.5469692E-2,-6.745895E-2,6.1813004E-2,1.0822209E-1,-7.043374E-2,-7.2353566E-3,1.0638096E-1,4.5384042E-2],"split_indices":[8,11,11,10,8,10,11,10,11,7,7,11,11,10,8,11,11,0,10,8,0,10,7,10,10,10,11,11,11,7,10,10,10,0,0,11,11,11,11,8,7,8,0,8,7,0,11,6,8,11,11,10,7,11,10,10,8,8,7,11,3,0,0,0,0,0,0,0,0,0,0,0,0,0,0,0,0,0,0,0,0,0,0,0,0,0,0,0,0,0,0,0,0,0,0,0,0,0,0,0,0,0,0,0,0,0,0,0,0,0,0,0,0],"split_type":[0,0,0,0,0,0,0,0,0,0,0,0,0,0,0,0,0,0,0,0,0,0,0,0,0,0,0,0,0,0,0,0,0,0,0,0,0,0,0,0,0,0,0,0,0,0,0,0,0,0,0,0,0,0,0,0,0,0,0,0,0,0,0,0,0,0,0,0,0,0,0,0,0,0,0,0,0,0,0,0,0,0,0,0,0,0,0,0,0,0,0,0,0,0,0,0,0,0,0,0,0,0,0,0,0,0,0,0,0,0,0,0,0],"sum_hessian":[1.2331377E4,3.385257E3,8.94612E3,6.690663E2,2.7161907E3,1.3695925E3,7.576528E3,1.8625224E2,4.8281406E2,2.3228745E3,3.933162E2,8.8261E2,4.8698254E2,6.7906577E3,7.858698E2,1.6583632E2,2.0415926E1,2.5125305E2,2.31561E2,3.371826E2,1.985692E3,6.265045E1,3.3066574E2,7.204817E2,1.621283E2,2.4912852E2,2.37854E2,3.27088E2,6.46357E3,3.414449E2,4.4442496E2,1.599192E2,5.9171147E0,1.3070108E1,7.345819E0,9.5007225E1,1.5624583E2,3.1863075E1,1.9969794E2,3.1981937E2,1.736322E1,6.022789E1,2.4225621E0,1.4161564E1,3.1650418E2,6.7193555E2,4.854617E1,1.2029846E2,4.182984E1,2.057646E2,4.3363934E1,6.1778786E1,1.7607521E2,2.1076686E2,1.1632115E2,5.320631E2,5.931507E3,9.5324356E1,2.4612051E2,4.179751E2,2.6449848E1,1.5668332E2,3.2358747E0,4.489291E0,1.4278235E0,8.946351E1,5.5437136E0,1.420473E1,1.420411E2,6.3905277E0,2.5472548E1,1.4758982E1,1.8493895E2,2.8464328E2,3.517609E1,1.5892922E1,1.4702978E0,1.76249E1,4.260299E1,1.0394492E1,3.7670715E0,1.1443063E1,3.0506113E2,4.4806103E1,3.7400634E0,1.4269978E0,1.1887146E2,3.9486786E1,2.3430533E0,1.8950339E2,1.6261213E1,1.9672548E1,2.3691385E1,1.633915E1,4.5439636E1,2.2875674E0,1.7378764E2,1.9336792E2,1.739894E1,5.1715274E0,1.1114963E2,1.327807E2,3.992824E2,5.2846454E2,5.403042E3,4.293148E1,5.2392876E1,6.809488E1,1.7802565E2,2.4545789E2,1.7251723E2,2.30338E1,3.4160466E0],"tree_param":{"num_deleted":"0","num_feature":"12","num_nodes":"113","size_leaf_vector":"1"}},{"base_weights":[-5.381931E-4,-5.391274E-1,2.5948358E-1,3.647103E-1,-6.4332587E-1,-5.166468E-1,4.234093E-1,9.740026E-1,-7.603805E-2,-5.052322E-1,-6.835046E-2,-6.372898E-1,1.506926E-1,5.458284E-1,-3.9396234E-2,-5.1777054E-2,1.0031297E0,4.8624852E-1,-6.004998E-1,-6.38082E-1,6.4330834E-1,-6.882047E-2,-3.5750186E-1,-5.0151294E-1,8.661555E-1,-4.631632E-1,6.249317E-1,3.4590504E-1,-5.3139067E-1,1.8326096E-1,1.0163401E0,9.9689627E-1,-5.36338E-1,-1.9428603E-1,-6.592047E-1,-6.735479E-1,-2.9104787E-1,7.5798523E-1,-6.489788E-2,-6.963097E-1,9.663044E-1,-6.932208E-2,1.6820636E-1,4.9308935E-1,9.5381415E-1,-6.9800295E-2,9.6819E-3,2.2823481E-1,7.156631E-1,7.0894843E-1,-8.087081E-2,-1.968351E-1,-6.908231E-1,-4.3189052E-2,6.9181606E-2,1.0411526E-1,4.854242E-2,-5.2090187E-2,1.0506809E-1,3.514472E-2,-6.818254E-2,9.8773755E-2,-6.958676E-2,-4.5770492E-2,-6.844493E-2,-5.0429206E-2,-6.8575405E-2,6.0486075E-2,-6.509997E-2,1.0390718E-1,4.477776E-2,-7.022723E-2,-3.535623E-2,1.009888E-1,1.0722881E-2,-4.5279082E-2,8.74381E-2,-6.3870706E-2,9.9198855E-2,1.0142764E-1,3.575203E-2,-5.2251E-2,1.03170864E-1,-6.625459E-2,7.808634E-2,8.143072E-2,3.7064273E-2,-9.887118E-3,8.768478E-2,5.8700252E-2,-6.0548764E-2,1.0541183E-1,-6.777834E-2,2.139314E-2,-6.975783E-2],"categories":[],"categories_nodes":[],"categories_segments":[],"categories_sizes":[],"default_left":[0,0,0,0,0,0,0,0,0,0,0,0,0,0,0,0,0,0,0,0,0,0,0,0,0,0,0,0,0,0,0,0,0,0,0,0,0,0,0,0,0,0,0,0,0,0,0,0,0,0,0,0,0,0,0,0,0,0,0,0,0,0,0,0,0,0,0,0,0,0,0,0,0,0,0,0,0,0,0,0,0,0,0,0,0,0,0,0,0,0,0,0,0,0,0],"id":9,"left_children":[1,3,5,7,9,11,13,15,17,19,-1,21,23,25,27,-1,29,31,33,35,37,-1,39,41,43,45,47,49,51,53,55,57,59,61,63,65,67,69,-1,71,73,-1,75,77,79,-1,81,83,85,87,89,91,93,-1,-1,-1,-1,-1,-1,-1,-1,-1,-1,-1,-1,-1,-1,-1,-1,-1,-1,-1,-1,-1,-1,-1,-1,-1,-1,-1,-1,-1,-1,-1,-1,-1,-1,-1,-1,-1,-1,-1,-1,-1,-1],"loss_changes":[1.6444297E3,3.602942E2,1.0077352E3,1.0637197E2,1.8676392E1,1.11308685E2,3.7047656E2,7.7418365E0,6.829841E1,1.1889226E2,0E0,1.6421875E1,9.949938E1,4.130055E2,2.5964426E2,0E0,1.5832367E0,5.893774E1,2.7279472E0,8.376434E0,1.2496212E1,0E0,8.240242E1,1.4456865E1,2.852478E0,4.1813896E1,1.7243848E2,1.19078896E2,3.1948471E1,1.4909215E0,1.609787E0,6.6652985E0,5.134883E0,1.0493957E1,2.1689606E-1,9.581299E-1,2.1787823E1,6.0623436E0,0E0,4.93927E-2,1.297718E0,0E0,1.1649341E1,1.2718387E1,2.5650635E0,0E0,6.903068E1,4.4066025E2,1.3251111E2,5.6399857E1,1.2438834E2,1.183576E2,2.636612E0,0E0,0E0,0E0,0E0,0E0,0E0,0E0,0E0,0E0,0E0,0E0,0E0,0E0,0E0,0E0,0E0,0E0,0E0,0E0,0E0,0E0,0E0,0E0,0E0,0E0,0E0,0E0,0E0,0E0,0E0,0E0,0E0,0E0,0E0,0E0,0E0,0E0,0E0,0E0,0E0,0E0,0E0],"parents":[2147483647,0,0,1,1,2,2,3,3,4,4,5,5,6,6,7,7,8,8,9,9,11,11,12,12,13,13,14,14,16,16,17,17,18,18,19,19,20,20,22,22,23,23,24,24,25,25,26,26,27,27,28,28,29,29,30,30,31,31,32,32,33,33,34,34,35,35,36,36,37,37,39,39,40,40,42,42,43,43,44,44,46,46,47,47,48,48,49,49,50,50,51,51,52,52],"right_children":[2,4,6,8,10,12,14,16,18,20,-1,22,24,26,28,-1,30,32,34,36,38,-1,40,42,44,46,48,50,52,54,56,58,60,62,64,66,68,70,-1,72,74,-1,76,78,80,-1,82,84,86,88,90,92,94,-1,-1,-1,-1,-1,-1,-1,-1,-1,-1,-1,-1,-1,-1,-1,-1,-1,-1,-1,-1,-1,-1,-1,-1,-1,-1,-1,-1,-1,-1,-1,-1,-1,-1,-1,-1,-1,-1,-1,-1,-1,-1],"split_conditions":[6.8333336E7,-4.280702E0,-2.2137033E1,7.7774605E1,1.425E8,7.522382E1,4.5599566E0,-2.4991589E1,-9.636793E0,5E7,-6.835046E-2,-2.4477064E1,-2.9689186E1,5.5183083E1,6.2138535E1,-5.1777054E-2,6.4543945E1,2E0,-8.851539E0,4.05E7,7.405574E1,-6.882047E-2,7.330435E1,8.0556526E1,7.7774605E1,-1.9980358E0,-1.4636473E1,1.1986196E1,6.4504814E1,1.25E8,-4.602784E0,-2.9689186E1,-1.8828142E1,7.966247E1,7.8622406E1,-1.2250019E0,1.1E8,1.23E8,-6.489788E-2,7.222829E1,4.1E1,-6.932208E-2,-3.8246155E1,-2.612633E1,9.375123E1,-6.9800295E-2,5.1412464E1,6.667581E1,7.195723E1,4.7932583E1,5.5864235E1,7.397405E0,1.797389E8,-4.3189052E-2,6.9181606E-2,1.0411526E-1,4.854242E-2,-5.2090187E-2,1.0506809E-1,3.514472E-2,-6.818254E-2,9.8773755E-2,-6.958676E-2,-4.5770492E-2,-6.844493E-2,-5.0429206E-2,-6.8575405E-2,6.0486075E-2,-6.509997E-2,1.0390718E-1,4.477776E-2,-7.022723E-2,-3.535623E-2,1.009888E-1,1.0722881E-2,-4.5279082E-2,8.74381E-2,-6.3870706E-2,9.9198855E-2,1.0142764E-1,3.575203E-2,-5.2251E-2,1.03170864E-1,-6.625459E-2,7.808634E-2,8.143072E-2,3.7064273E-2,-9.887118E-3,8.768478E-2,5.8700252E-2,-6.0548764E-2,1.0541183E-1,-6.777834E-2,2.139314E-2,-6.975783E-2],"split_indices":[8,11,11,10,7,10,11,11,11,8,0,11,11,10,10,0,10,0,11,8,10,0,10,10,10,11,11,11,10,6,11,11,11,10,10,11,7,7,0,10,1,0,11,11,10,0,10,10,10,10,10,11,7,0,0,0,0,0,0,0,0,0,0,0,0,0,0,0,0,0,0,0,0,0,0,0,0,0,0,0,0,0,0,0,0,0,0,0,0,0,0,0,0,0,0],"split_type":[0,0,0,0,0,0,0,0,0,0,0,0,0,0,0,0,0,0,0,0,0,0,0,0,0,0,0,0,0,0,0,0,0,0,0,0,0,0,0,0,0,0,0,0,0,0,0,0,0,0,0,0,0,0,0,0,0,0,0,0,0,0,0,0,0,0,0,0,0,0,0,0,0,0,0,0,0,0,0,0,0,0,0,0,0,0,0,0,0,0,0,0,0,0,0],"sum_hessian":[1.174016E4,3.8221592E3,7.918001E3,3.9482968E2,3.4273293E3,1.3803552E3,6.537646E3,1.6521959E2,2.2961009E2,7.75505E2,2.6518245E3,1.1690559E3,2.1129933E2,5.169939E3,1.367707E3,2.84288E0,1.6237671E2,1.1084437E2,1.1876573E2,6.955019E2,8.000312E1,9.878336E2,1.8122223E2,1.10692604E2,1.0060673E2,3.754957E2,4.7944434E3,7.6718756E2,6.005195E2,2.8106978E0,1.5956601E2,7.394411E1,3.6900257E1,1.5540618E1,1.0322511E2,6.301604E2,6.5341484E1,7.386209E1,6.1410303E0,1.4467014E2,3.6552086E1,8.603104E1,2.4661562E1,2.0402193E1,8.020453E1,2.5057219E2,1.2492351E2,8.93107E2,3.9013362E3,4.1418964E2,3.529979E2,1.9453616E2,4.059833E2,1.3402603E0,1.4704375E0,1.5152348E2,8.042519E0,2.233378E0,7.171073E1,4.996323E0,3.1903934E1,4.34112E0,1.1199498E1,1.3622482E1,8.960263E1,4.5234394E1,5.84926E2,1.8533012E1,4.680847E1,3.7517235E1,3.6344856E1,1.4116542E2,3.504724E0,3.4620148E1,1.9319383E0,1.33130865E1,1.1348475E1,6.1561646E0,1.4246029E1,7.21843E1,8.020227E0,8.246889E1,4.2454617E1,3.4186182E2,5.512452E2,3.032858E3,8.6847833E2,7.134351E1,3.4284613E2,1.5524342E2,1.9775447E2,5.3691654E1,1.4084451E2,2.7814233E0,4.0320187E2],"tree_param":{"num_deleted":"0","num_feature":"12","num_nodes":"95","size_leaf_vector":"1"}},{"base_weights":[3.7067737E-3,-5.887765E-1,1.0559211E-1,-1.0369607E-1,-6.286592E-1,-4.1085098E-2,2.796997E-1,-5.8203393E-1,8.407852E-1,-5.327604E-1,-6.357162E-2,-5.12795E-1,1.0271679E-2,4.1333148E-1,-1.1375165E-1,1.3590251E-1,-6.291685E-2,2.735572E-1,1.0446688E0,-6.2087303E-1,4.9530175E-1,-5.977582E-1,4.376024E-1,1.7408752E-1,-1.331204E-1,5.648228E-2,6.4038694E-1,5.360525E-1,-2.5196752E-1,-4.7814865E-2,9.1933034E-2,8.9546435E-2,-3.9720252E-1,6.2289773E-3,1.0860902E0,-6.305649E-2,-2.2797773E-3,1.0777095E-1,9.494559E-2,-6.342355E-2,-2.5184053E-1,-1.3760078E-1,8.058495E-1,-6.173281E-1,2.3626356E-1,-2.8039643E-1,5.4512566E-1,5.617787E-1,-6.0119027E-1,4.573949E-1,1.0228719E0,1.1039416E0,-3.287924E-1,-4.2802927E-1,3.6238626E-1,1.0138229E-2,-5.2554786E-2,4.7986887E-2,1.1568791E-1,6.0022313E-2,-4.6232246E-2,-6.272658E-2,8.910981E-2,-5.222238E-2,7.8644134E-2,1.0253038E-1,-5.9905187E-3,-6.422216E-2,-3.5451695E-2,3.8305275E-2,-2.8045792E-3,3.5418447E-2,-5.236826E-2,-1.801255E-2,8.74769E-2,1.1046751E-2,9.102015E-2,-1.4374684E-2,-6.3438945E-2,-3.624799E-2,7.063987E-2,1.1825397E-1,-6.5507586E-3,1.5157749E-2,1.298714E-1,-4.4769358E-2,8.575513E-2,-5.3319376E-2,3.2472845E-2,-7.854658E-3,9.854396E-2],"categories":[],"categories_nodes":[],"categories_segments":[],"categories_sizes":[],"default_left":[0,0,0,0,0,0,0,0,0,0,0,0,0,0,0,0,0,0,0,0,0,0,0,0,0,0,0,0,0,0,0,0,0,0,0,0,0,0,0,0,0,0,0,0,0,0,0,0,0,0,0,0,0,0,0,0,0,0,0,0,0,0,0,0,0,0,0,0,0,0,0,0,0,0,0,0,0,0,0,0,0,0,0,0,0,0,0,0,0,0,0],"id":10,"left_children":[1,3,5,7,9,11,13,15,17,19,-1,21,23,25,27,29,-1,31,33,35,37,39,41,43,45,47,49,51,53,-1,-1,-1,55,-1,57,-1,-1,59,-1,-1,61,63,65,67,69,71,73,75,77,79,81,83,85,87,89,-1,-1,-1,-1,-1,-1,-1,-1,-1,-1,-1,-1,-1,-1,-1,-1,-1,-1,-1,-1,-1,-1,-1,-1,-1,-1,-1,-1,-1,-1,-1,-1,-1,-1,-1,-1],"loss_changes":[6.258085E2,2.9363647E1,2.2591269E2,5.3241028E1,6.124878E-1,1.1633579E2,2.1271475E2,2.7283745E0,4.3012905E0,9.593042E0,0E0,3.833448E1,1.017694E2,2.4462238E2,9.230808E1,3.1498706E0,0E0,5.295564E0,1.105156E0,5.354614E-1,1.4197536E0,5.306839E0,8.428759E0,9.9652176E1,2.3092667E2,3.9090436E2,1.2868689E2,8.892685E1,9.176474E1,0E0,0E0,0E0,4.6218073E-1,0E0,6.29055E-1,0E0,0E0,1.9042472E0,0E0,0E0,1.9003317E1,6.1617913E0,4.637891E0,7.378006E-1,7.27806E1,2.933297E2,9.877665E1,1.04492065E2,7.6711426E0,2.5543552E2,1.0370856E2,2.0036697E1,1.0574669E1,5.232229E1,5.2054207E1,0E0,0E0,0E0,0E0,0E0,0E0,0E0,0E0,0E0,0E0,0E0,0E0,0E0,0E0,0E0,0E0,0E0,0E0,0E0,0E0,0E0,0E0,0E0,0E0,0E0,0E0,0E0,0E0,0E0,0E0,0E0,0E0,0E0,0E0,0E0,0E0],"parents":[2147483647,0,0,1,1,2,2,3,3,4,4,5,5,6,6,7,7,8,8,9,9,11,11,12,12,13,13,14,14,15,15,17,17,18,18,19,19,20,20,21,21,22,22,23,23,24,24,25,25,26,26,27,27,28,28,32,32,34,34,37,37,40,40,41,41,42,42,43,43,44,44,45,45,46,46,47,47,48,48,49,49,50,50,51,51,52,52,53,53,54,54],"right_children":[2,4,6,8,10,12,14,16,18,20,-1,22,24,26,28,30,-1,32,34,36,38,40,42,44,46,48,50,52,54,-1,-1,-1,56,-1,58,-1,-1,60,-1,-1,62,64,66,68,70,72,74,76,78,80,82,84,86,88,90,-1,-1,-1,-1,-1,-1,-1,-1,-1,-1,-1,-1,-1,-1,-1,-1,-1,-1,-1,-1,-1,-1,-1,-1,-1,-1,-1,-1,-1,-1,-1,-1,-1,-1,-1,-1],"split_conditions":[2.85E7,9.75E7,-1.848179E0,1.85E7,1.13E8,-3.4379448E1,1.4666667E8,6E7,2.2E7,2.55E7,-6.357162E-2,7.8622406E1,-1.2811247E1,5.6190476E7,4.7932583E1,1.2288462E7,-6.291685E-2,8.3E7,1.56E2,1.687E3,3.958E1,7.50794E1,-4.2368595E1,5.5864235E1,7.522382E1,2.0166667E8,6.915302E1,9.0095625E0,8.172395E0,-4.7814865E-2,9.1933034E-2,8.9546435E-2,1.07E8,6.2289773E-3,6.9E7,-6.305649E-2,-2.2797773E-3,1.35E8,9.494559E-2,-6.342355E-2,-3.7188046E1,2.305E8,9.05512E1,-1.4400841E1,7.138752E1,6.077366E1,-8.851539E0,4E7,2.09E8,4.5599566E0,7.78865E0,5.019776E-1,2.8892931E1,6.601803E1,5.9021473E1,1.0138229E-2,-5.2554786E-2,4.7986887E-2,1.1568791E-1,6.0022313E-2,-4.6232246E-2,-6.272658E-2,8.910981E-2,-5.222238E-2,7.8644134E-2,1.0253038E-1,-5.9905187E-3,-6.422216E-2,-3.5451695E-2,3.8305275E-2,-2.8045792E-3,3.5418447E-2,-5.236826E-2,-1.801255E-2,8.74769E-2,1.1046751E-2,9.102015E-2,-1.4374684E-2,-6.3438945E-2,-3.624799E-2,7.063987E-2,1.1825397E-1,-6.5507586E-3,1.5157749E-2,1.298714E-1,-4.4769358E-2,8.575513E-2,-5.3319376E-2,3.2472845E-2,-7.854658E-3,9.854396E-2],"split_indices":[8,7,11,8,7,11,8,7,8,8,0,10,11,8,10,8,0,7,4,4,2,10,11,10,10,7,10,11,11,0,0,0,6,0,7,0,0,6,0,0,11,7,10,11,10,10,11,8,7,11,11,11,11,10,10,0,0,0,0,0,0,0,0,0,0,0,0,0,0,0,0,0,0,0,0,0,0,0,0,0,0,0,0,0,0,0,0,0,0,0,0],"split_type":[0,0,0,0,0,0,0,0,0,0,0,0,0,0,0,0,0,0,0,0,0,0,0,0,0,0,0,0,0,0,0,0,0,0,0,0,0,0,0,0,0,0,0,0,0,0,0,0,0,0,0,0,0,0,0,0,0,0,0,0,0,0,0,0,0,0,0,0,0,0,0,0,0,0,0,0,0,0,0,0,0,0,0,0,0,0,0,0,0,0,0],"sum_hessian":[1.0364984E4,1.5201622E3,8.844821E3,1.1576375E2,1.4043986E3,4.800987E3,4.0438347E3,7.709985E1,3.86639E1,1.01505905E2,1.3028926E3,4.7049796E2,4.3304893E3,3.0185605E3,1.025274E3,4.6339493E0,7.2465904E1,1.0841975E1,2.7821924E1,9.385767E1,7.648231E0,4.322288E2,3.8269165E1,2.0211952E3,2.309294E3,1.1742742E3,1.8442864E3,1.7932452E2,8.459496E2,2.8162456E0,1.8177037E0,5.4520273E0,5.389948E0,1.2269335E0,2.6594992E1,9.23075E1,1.5501723E0,4.794431E0,2.8537996E0,3.9024374E2,4.198503E1,1.5181674E1,2.3087492E1,1.4657446E2,1.8746207E3,1.8977898E3,4.1150412E2,6.641482E2,5.1012595E2,1.2489486E3,5.953378E2,1.0807925E2,7.124528E1,6.577536E2,1.8819598E2,1.1464403E0,4.243508E0,3.5941691E0,2.3000822E1,2.5440264E0,2.250405E0,3.1943588E1,1.0041445E1,1.10267515E1,4.154923E0,1.8271646E1,4.815847E0,1.3257344E2,1.4001025E1,1.2049691E3,6.696516E2,5.2581445E2,1.3719753E3,1.2873239E2,2.8277173E2,2.899254E2,3.7422275E2,3.487813E1,4.752478E2,2.908464E2,9.581022E2,5.190984E2,7.6239456E1,1.8652706E1,8.9426544E1,6.5321106E1,5.9241734E0,5.773818E2,8.037179E1,1.10716324E2,7.747966E1],"tree_param":{"num_deleted":"0","num_feature":"12","num_nodes":"91","size_leaf_vector":"1"}},{"base_weights":[-2.6568077E-3,7.854881E-1,-3.088867E-1,2.5297308E-1,9.1489977E-1,6.1315006E-1,-4.8089686E-1,-6.307275E-1,5.851303E-1,9.4777924E-1,7.1813494E-1,8.9736193E-1,9.114501E-2,-5.4659927E-1,7.22961E-2,-7.0044917E-1,-6.69511E-2,2.622619E-1,9.2770976E-1,8.685285E-1,9.682177E-2,-4.5233223E-1,9.3513346E-1,9.707052E-1,5.670049E-1,7.525689E-1,-6.1775184E-1,3.7655115E-1,-5.945844E-1,5.905383E-1,-3.3574516E-1,-7.170754E-1,-2.1976542E-1,-6.86722E-2,9.451857E-2,-7.00751E-1,8.25889E-1,6.5527E-1,9.67709E-2,9.399182E-1,-2.2838801E-1,-5.18102E-1,8.148103E-2,4.0970954E-1,9.572071E-2,9.8053835E-2,8.174606E-1,9.835454E-1,-6.529295E-1,9.027766E-1,2.5187321E-2,-2.9178163E-1,-7.3191446E-1,9.395895E-1,-6.9010866E-1,-2.8424707E-1,-6.305285E-1,-3.9925176E-1,8.394813E-1,-4.5934916E-1,5.8654267E-1,-7.223521E-2,-3.551661E-2,-6.025344E-2,7.077255E-2,-7.1902946E-2,-3.4637198E-2,2.073727E-2,9.407017E-2,-6.500962E-2,9.846543E-2,5.0651163E-2,9.4891846E-2,-7.0868604E-2,3.2087147E-2,-6.921775E-2,-2.1240465E-2,8.556331E-2,-4.859412E-2,9.4610944E-2,-6.1639916E-2,-7.22491E-3,9.966423E-2,-2.4915433E-2,-7.383267E-2,9.7266465E-2,6.382161E-2,6.4376414E-2,-5.1240575E-2,8.052397E-2,-6.706736E-2,-2.2625228E-2,-7.3729515E-2,9.95965E-2,2.129258E-2,-2.6960054E-4,-7.226322E-2,8.651527E-2,-6.1744608E-2,-2.8826391E-2,-6.750985E-2,-5.17555E-2,9.7189836E-2,5.0371915E-2,1.0123489E-1,-6.5285176E-2,8.946094E-3,7.7301636E-3,1.1105551E-1],"categories":[],"categories_nodes":[],"categories_segments":[],"categories_sizes":[],"default_left":[0,0,0,0,0,0,0,0,0,0,0,0,0,0,0,0,0,0,0,0,0,0,0,0,0,0,0,0,0,0,0,0,0,0,0,0,0,0,0,0,0,0,0,0,0,0,0,0,0,0,0,0,0,0,0,0,0,0,0,0,0,0,0,0,0,0,0,0,0,0,0,0,0,0,0,0,0,0,0,0,0,0,0,0,0,0,0,0,0,0,0,0,0,0,0,0,0,0,0,0,0,0,0,0,0,0,0,0,0],"id":11,"left_children":[1,3,5,7,9,11,13,15,17,19,21,23,25,27,29,31,33,35,37,39,-1,41,43,45,47,49,51,53,55,57,59,61,63,-1,-1,65,67,69,-1,71,73,75,-1,77,-1,-1,79,81,83,85,87,89,91,93,95,97,99,101,103,105,107,-1,-1,-1,-1,-1,-1,-1,-1,-1,-1,-1,-1,-1,-1,-1,-1,-1,-1,-1,-1,-1,-1,-1,-1,-1,-1,-1,-1,-1,-1,-1,-1,-1,-1,-1,-1,-1,-1,-1,-1,-1,-1,-1,-1,-1,-1,-1,-1],"loss_changes":[2.9168123E3,2.3281445E2,1.380669E3,1.9484041E2,1.6917969E1,2.0299908E2,2.6666284E2,7.086487E0,5.3075897E1,2.928955E0,1.0039079E2,2.0921082E1,2.2724545E2,2.9068384E2,1.6506508E2,1.1322937E0,1.387159E1,1.3603557E2,1.9103699E0,3.8344543E1,0E0,5.6084805E0,3.4625244E0,2.8912354E-1,8.36756E1,2.7363983E1,8.494522E0,1.955959E2,6.935327E1,8.5049644E1,5.006819E1,4.0519714E-2,2.8539531E0,0E0,0E0,3.5127258E-1,1.1016792E1,1.4824625E1,0E0,1.3034668E0,8.288804E0,3.0336971E0,0E0,6.4658394E0,0E0,0E0,9.742596E0,1.761879E0,1.2709026E0,3.220047E0,1.4938993E1,2.6459782E1,3.0290985E-1,8.50882E0,2.5182E0,2.490309E2,8.501172E1,1.1820692E1,1.5453796E1,4.1025948E1,1.3807575E1,0E0,0E0,0E0,0E0,0E0,0E0,0E0,0E0,0E0,0E0,0E0,0E0,0E0,0E0,0E0,0E0,0E0,0E0,0E0,0E0,0E0,0E0,0E0,0E0,0E0,0E0,0E0,0E0,0E0,0E0,0E0,0E0,0E0,0E0,0E0,0E0,0E0,0E0,0E0,0E0,0E0,0E0,0E0,0E0,0E0,0E0,0E0,0E0],"parents":[2147483647,0,0,1,1,2,2,3,3,4,4,5,5,6,6,7,7,8,8,9,9,10,10,11,11,12,12,13,13,14,14,15,15,16,16,17,17,18,18,19,19,21,21,22,22,23,23,24,24,25,25,26,26,27,27,28,28,29,29,30,30,31,31,32,32,35,35,36,36,37,37,39,39,40,40,41,41,43,43,46,46,47,47,48,48,49,49,50,50,51,51,52,52,53,53,54,54,55,55,56,56,57,57,58,58,59,59,60,60],"right_children":[2,4,6,8,10,12,14,16,18,20,22,24,26,28,30,32,34,36,38,40,-1,42,44,46,48,50,52,54,56,58,60,62,64,-1,-1,66,68,70,-1,72,74,76,-1,78,-1,-1,80,82,84,86,88,90,92,94,96,98,100,102,104,106,108,-1,-1,-1,-1,-1,-1,-1,-1,-1,-1,-1,-1,-1,-1,-1,-1,-1,-1,-1,-1,-1,-1,-1,-1,-1,-1,-1,-1,-1,-1,-1,-1,-1,-1,-1,-1,-1,-1,-1,-1,-1,-1,-1,-1,-1,-1,-1,-1],"split_conditions":[4.7233332E7,5.9441457E0,-2.4991589E1,7.686771E1,3.6666668E7,7.011812E1,1.2525763E1,7.599044E1,5.019776E-1,1.4E8,1.7E8,-2.79048E1,-3.4379448E1,4.7932583E1,7.275E7,5.7539988E0,3.6886907E0,2E0,7.8622406E1,2.85E7,9.682177E-2,7.405574E1,1.7833333E8,6.915302E1,6.608842E1,7.8622406E1,-3.0982944E1,5.019776E-1,-1.8426334E1,2.25E8,6.47163E1,7.522382E1,7.405574E1,-6.86722E-2,9.451857E-2,3.3753207E-1,-1.0619413E1,2.0448492E0,9.67709E-2,6.9E7,1.25E8,1.52E8,8.148103E-2,4.4E7,9.572071E-2,9.8053835E-2,-2.906838E1,2.2E8,6.758502E1,-3.7188046E1,-4.2368595E1,7.20375E1,6E7,-9.227669E-1,3.9451473E1,6.1781097E1,6.3E7,6.7286156E1,2.625E8,2.0763447E1,1.5037827E1,-7.223521E-2,-3.551661E-2,-6.025344E-2,7.077255E-2,-7.1902946E-2,-3.4637198E-2,2.073727E-2,9.407017E-2,-6.500962E-2,9.846543E-2,5.0651163E-2,9.4891846E-2,-7.0868604E-2,3.2087147E-2,-6.921775E-2,-2.1240465E-2,8.556331E-2,-4.859412E-2,9.4610944E-2,-6.1639916E-2,-7.22491E-3,9.966423E-2,-2.4915433E-2,-7.383267E-2,9.7266465E-2,6.382161E-2,6.4376414E-2,-5.1240575E-2,8.052397E-2,-6.706736E-2,-2.2625228E-2,-7.3729515E-2,9.95965E-2,2.129258E-2,-2.6960054E-4,-7.226322E-2,8.651527E-2,-6.1744608E-2,-2.8826391E-2,-6.750985E-2,-5.17555E-2,9.7189836E-2,5.0371915E-2,1.0123489E-1,-6.5285176E-2,8.946094E-3,7.7301636E-3,1.1105551E-1],"split_indices":[8,11,11,10,8,10,11,10,11,7,7,11,11,10,8,11,11,0,10,8,0,10,7,10,10,10,11,11,11,7,10,10,10,0,0,11,11,11,0,7,7,7,0,8,0,0,11,6,10,11,11,10,7,11,10,10,8,10,7,11,11,0,0,0,0,0,0,0,0,0,0,0,0,0,0,0,0,0,0,0,0,0,0,0,0,0,0,0,0,0,0,0,0,0,0,0,0,0,0,0,0,0,0,0,0,0,0,0,0],"split_type":[0,0,0,0,0,0,0,0,0,0,0,0,0,0,0,0,0,0,0,0,0,0,0,0,0,0,0,0,0,0,0,0,0,0,0,0,0,0,0,0,0,0,0,0,0,0,0,0,0,0,0,0,0,0,0,0,0,0,0,0,0,0,0,0,0,0,0,0,0,0,0,0,0,0,0,0,0,0,0,0,0,0,0,0,0,0,0,0,0,0,0,0,0,0,0,0,0,0,0,0,0,0,0,0,0,0,0,0,0],"sum_hessian":[1.2083221E4,3.3807102E3,8.702511E3,6.615319E2,2.7191782E3,1.367838E3,7.3346724E3,1.8047672E2,4.810552E2,2.3265881E3,3.925901E2,8.85175E2,4.8266306E2,6.5560283E3,7.7864404E2,1.6039803E2,2.0078686E1,2.4856116E2,2.3249405E2,4.8591852E2,1.8406697E3,6.123116E1,3.3135892E2,7.227723E2,1.6240268E2,2.4966026E2,2.3300278E2,3.2360388E2,6.2324243E3,3.4280695E2,4.3583713E2,1.5456021E2,5.8378134E0,1.2652548E1,7.4261365E0,9.167759E1,1.5688356E2,3.1989742E1,2.005043E2,4.563607E2,2.9557823E1,5.8771793E1,2.4593654E0,1.4148166E1,3.1721075E2,6.7411816E2,4.8654114E1,1.2120993E2,4.119275E1,2.0672868E2,4.2931587E1,6.135912E1,1.7164366E2,2.1188115E2,1.1172273E2,6.478523E2,5.5845723E3,6.8771126E1,2.740358E2,3.847723E2,5.106482E1,1.5135745E2,3.202755E0,4.3804097E0,1.4574037E0,8.6202385E1,5.4752073E0,2.5001617E1,1.3188194E2,6.249398E0,2.5740343E1,1.044936E1,4.4591132E2,1.5613978E1,1.3943846E1,3.6642136E1,2.2129658E1,9.47531E0,4.6728554E0,4.4960346E1,3.6937678E0,1.4298224E0,1.1978011E2,7.8751287E0,3.331762E1,1.6141241E2,4.5316265E1,1.9870396E1,2.3061192E1,1.54630575E1,4.5896065E1,2.2604508E0,1.6938321E2,1.9628268E2,1.5598465E1,5.096055E0,1.0662668E2,1.4523941E2,5.0261285E2,6.442987E2,4.9402734E3,6.3881916E1,4.889212E0,9.446654E1,1.7956926E2,2.843315E2,1.00440796E2,2.6479382E1,2.458544E1],"tree_param":{"num_deleted":"0","num_feature":"12","num_nodes":"109","size_leaf_vector":"1"}},{"base_weights":[-9.539104E-4,-5.4397935E-1,2.291965E-1,2.780061E-1,-6.3111264E-1,-4.955509E-1,3.7144214E-1,7.157751E-1,-2.9763445E-1,-4.7408238E-1,-6.571914E-1,-6.1708856E-1,1.4912081E-1,4.925867E-1,-7.4981324E-2,7.77232E-1,-6.09019E-2,1.6266686E-1,-6.7083925E-2,-6.0870427E-1,9.0006924E-1,-6.629084E-2,-5.5391806E-1,-6.697452E-2,-3.375024E-1,-4.8567E-1,8.032107E-1,-4.4968832E-1,5.616842E-1,3.14959E-1,-5.161419E-1,9.0291286E-1,4.66743E-1,9.415164E-1,-5.1371694E-1,-6.4985716E-1,-4.692103E-2,9.710775E-1,-2.208783E-2,9.677848E-2,-6.6687423E-1,-6.81409E-1,9.0031904E-1,-6.7706555E-2,1.6374172E-1,4.5001525E-1,8.842226E-1,-6.819337E-2,2.84915E-3,2.1925327E-1,6.380427E-1,6.556267E-1,-1.2661852E-1,-2.0724033E-1,-6.7297745E-1,-4.288015E-2,9.235286E-2,9.002776E-2,-4.790321E-2,2.7582547E-2,9.650351E-2,3.325712E-2,-6.658096E-2,-4.5230728E-2,-6.677984E-2,6.880563E-2,-6.1493743E-2,1.0370811E-1,6.380908E-2,7.6790536E-3,-6.740835E-2,-6.872358E-2,-3.5272088E-2,9.3989484E-2,9.234323E-3,-4.3054517E-2,8.117572E-2,-6.3264236E-2,9.2011966E-2,9.402927E-2,3.21981E-2,-5.0501734E-2,9.4193004E-2,-5.9592355E-2,7.584708E-2,2.209504E-2,7.282962E-2,-1.230527E-3,7.973365E-2,5.532201E-2,-5.8463212E-2,9.897315E-2,-6.570365E-2,4.1872308E-2,-6.771774E-2],"categories":[],"categories_nodes":[],"categories_segments":[],"categories_sizes":[],"default_left":[0,0,0,0,0,0,0,0,0,0,0,0,0,0,0,0,0,0,0,0,0,0,0,0,0,0,0,0,0,0,0,0,0,0,0,0,0,0,0,0,0,0,0,0,0,0,0,0,0,0,0,0,0,0,0,0,0,0,0,0,0,0,0,0,0,0,0,0,0,0,0,0,0,0,0,0,0,0,0,0,0,0,0,0,0,0,0,0,0,0,0,0,0,0,0],"id":12,"left_children":[1,3,5,7,9,11,13,15,17,19,21,23,25,27,29,31,-1,33,-1,35,37,-1,39,-1,41,43,45,47,49,51,53,55,57,59,61,63,65,67,-1,-1,69,71,73,-1,75,77,79,-1,81,83,85,87,89,91,93,-1,-1,-1,-1,-1,-1,-1,-1,-1,-1,-1,-1,-1,-1,-1,-1,-1,-1,-1,-1,-1,-1,-1,-1,-1,-1,-1,-1,-1,-1,-1,-1,-1,-1,-1,-1,-1,-1,-1,-1],"loss_changes":[1.4368715E3,2.4528912E2,8.326255E2,8.304489E1,1.2361328E1,1.0392645E2,3.6511578E2,1.5698761E1,2.4622623E1,8.2744835E1,1.1982422E0,1.619226E1,8.80062E1,3.4596558E2,2.481777E2,6.5695496E0,0E0,3.456666E1,0E0,9.339203E0,3.4022675E0,0E0,2.5595173E1,0E0,7.671263E1,1.3498766E1,2.5865784E0,3.8186935E1,1.2922351E2,1.1530001E2,3.26501E1,3.8678818E0,2.2446503E1,2.1014404E-1,4.7616606E0,1.0360413E0,1.2421429E1,1.7010117E-1,0E0,0E0,7.7936935E-1,2.6626587E-2,1.1698303E0,0E0,1.0101902E1,1.1523306E1,2.3392868E0,0E0,5.9718235E1,3.9763593E2,1.5210364E2,4.094879E1,1.04445015E2,1.2413665E2,2.3397064E0,0E0,0E0,0E0,0E0,0E0,0E0,0E0,0E0,0E0,0E0,0E0,0E0,0E0,0E0,0E0,0E0,0E0,0E0,0E0,0E0,0E0,0E0,0E0,0E0,0E0,0E0,0E0,0E0,0E0,0E0,0E0,0E0,0E0,0E0,0E0,0E0,0E0,0E0,0E0,0E0],"parents":[2147483647,0,0,1,1,2,2,3,3,4,4,5,5,6,6,7,7,8,8,9,9,10,10,11,11,12,12,13,13,14,14,15,15,17,17,19,19,20,20,22,22,24,24,25,25,26,26,27,27,28,28,29,29,30,30,31,31,32,32,33,33,34,34,35,35,36,36,37,37,40,40,41,41,42,42,44,44,45,45,46,46,48,48,49,49,50,50,51,51,52,52,53,53,54,54],"right_children":[2,4,6,8,10,12,14,16,18,20,22,24,26,28,30,32,-1,34,-1,36,38,-1,40,-1,42,44,46,48,50,52,54,56,58,60,62,64,66,68,-1,-1,70,72,74,-1,76,78,80,-1,82,84,86,88,90,92,94,-1,-1,-1,-1,-1,-1,-1,-1,-1,-1,-1,-1,-1,-1,-1,-1,-1,-1,-1,-1,-1,-1,-1,-1,-1,-1,-1,-1,-1,-1,-1,-1,-1,-1,-1,-1,-1,-1,-1,-1],"split_conditions":[6.4E7,-4.1392684E0,-2.2137033E1,7.966247E1,1.23E8,7.522382E1,4.5599566E0,1.4666667E8,-9.636793E0,4.7233332E7,6E7,-2.4477064E1,-2.9689186E1,5.5183083E1,6.1855618E1,7.686771E1,-6.09019E-2,2E0,-6.7083925E-2,4.05E7,7.222829E1,-6.629084E-2,2.025E8,-6.697452E-2,7.330435E1,8.0556526E1,7.7774605E1,-1.9980358E0,-1.4636473E1,1.2768605E1,6.4504814E1,-2.4991589E1,-8.851539E0,1.1070968E8,-1.8828142E1,-1.2250019E0,1.044E8,1.2E8,-2.208783E-2,9.677848E-2,-2.5E-1,7.222829E1,4.1E1,-6.7706555E-2,-3.8246155E1,-2.612633E1,9.375123E1,-6.819337E-2,5.1412464E1,6.758502E1,9E7,4.7932583E1,5.5183083E1,7.397405E0,1.7E8,-4.288015E-2,9.235286E-2,9.002776E-2,-4.790321E-2,2.7582547E-2,9.650351E-2,3.325712E-2,-6.658096E-2,-4.5230728E-2,-6.677984E-2,6.880563E-2,-6.1493743E-2,1.0370811E-1,6.380908E-2,7.6790536E-3,-6.740835E-2,-6.872358E-2,-3.5272088E-2,9.3989484E-2,9.234323E-3,-4.3054517E-2,8.117572E-2,-6.3264236E-2,9.2011966E-2,9.402927E-2,3.21981E-2,-5.0501734E-2,9.4193004E-2,-5.9592355E-2,7.584708E-2,2.209504E-2,7.282962E-2,-1.230527E-3,7.973365E-2,5.532201E-2,-5.8463212E-2,9.897315E-2,-6.570365E-2,4.1872308E-2,-6.771774E-2],"split_indices":[8,11,11,10,7,10,11,7,11,8,8,11,11,10,10,10,0,0,0,8,10,0,6,0,10,10,10,11,11,11,10,11,11,6,11,11,7,7,0,0,3,10,1,0,11,11,10,0,10,10,8,10,10,11,7,0,0,0,0,0,0,0,0,0,0,0,0,0,0,0,0,0,0,0,0,0,0,0,0,0,0,0,0,0,0,0,0,0,0,0,0,0,0,0,0],"split_type":[0,0,0,0,0,0,0,0,0,0,0,0,0,0,0,0,0,0,0,0,0,0,0,0,0,0,0,0,0,0,0,0,0,0,0,0,0,0,0,0,0,0,0,0,0,0,0,0,0,0,0,0,0,0,0,0,0,0,0,0,0,0,0,0,0,0,0,0,0,0,0,0,0,0,0,0,0,0,0,0,0,0,0,0,0,0,0,0,0,0,0,0,0,0,0],"sum_hessian":[1.149504E4,3.4213105E3,8.07373E3,3.27701E2,3.0936094E3,1.3242316E3,6.7494985E3,1.8600363E2,1.4169737E2,4.4332974E2,2.6502798E3,1.1142152E3,2.1001627E2,5.3087705E3,1.440728E3,1.781525E2,7.851136E0,6.3698006E1,7.799937E1,4.0428052E2,3.904922E1,2.5061265E3,1.4415327E2,9.364507E2,1.7776453E2,1.0671114E2,1.0330513E2,3.6232156E2,4.9464487E3,7.649115E2,6.758165E2,1.2546021E2,5.269228E1,2.9424261E1,3.4273743E1,3.765406E2,2.7739918E1,3.6848682E1,2.2005405E0,9.438162E0,1.3471512E2,1.3946593E2,3.8298607E1,8.238727E1,2.4323874E1,2.0497078E1,8.280805E1,2.3910455E2,1.2321701E2,9.0259924E2,4.0438499E3,4.3151898E2,3.3339255E2,2.2836087E2,4.4745566E2,1.6107485E0,1.23849464E2,3.6163414E1,1.6528868E1,1.4384084E0,2.7985853E1,5.0404673E0,2.9233276E1,3.353187E1,3.4300873E2,1.2000586E1,1.5739332E1,2.8988234E1,7.860448E0,1.2007614E0,1.3351436E2,1.3596477E2,3.5011554E0,3.6354633E1,1.9439714E0,1.2862986E1,1.1460888E1,6.1008887E0,1.4396189E1,7.4687386E1,8.120669E0,8.026885E1,4.294816E1,3.5930496E2,5.4329425E2,7.1998785E2,3.3238618E3,7.5687614E1,3.5583136E2,1.3411505E2,1.9927748E2,6.204633E1,1.6631454E2,1.3365593E0,4.461191E2],"tree_param":{"num_deleted":"0","num_feature":"12","num_nodes":"95","size_leaf_vector":"1"}},{"base_weights":[5.913526E-3,-5.740594E-1,1.0037527E-1,-9.462702E-2,-6.1466986E-1,-3.6099315E-2,2.6015E-1,-5.6719524E-1,7.755801E-1,-5.1686406E-1,-6.2192E-2,-4.959757E-1,1.1717734E-2,3.821395E-1,-1.07959375E-1,1.3519481E-1,-6.1554577E-2,2.6646152E-1,9.5265883E-1,-6.066292E-1,4.655134E-1,-6.043904E-1,2.3008502E-1,1.6366811E-1,-1.2401225E-1,5.2702546E-2,5.856787E-1,4.572044E-1,-2.4782063E-1,-4.654191E-2,8.626978E-2,7.366127E-1,-5.0965983E-2,6.110501E-3,9.892969E-1,-6.1668485E-2,-1.9128461E-3,1.08973175E-1,8.678659E-2,-6.20156E-2,-3.1687674E-1,-2.1904992E-1,9.1233206E-1,-6.050714E-1,2.207068E-1,-2.6519766E-1,5.001947E-1,5.147523E-1,-5.878523E-1,3.6459553E-1,8.4494025E-1,9.211726E-1,-3.2436985E-1,-4.2689568E-1,3.5776842E-1,9.109947E-2,1.7026583E-2,4.399349E-2,1.0533925E-1,5.721676E-2,-4.4934046E-2,-5.6581505E-2,1.1189921E-1,-6.254538E-2,5.537817E-2,1.1261926E-1,-1.3362746E-2,-6.304359E-2,-3.4548614E-2,3.551996E-2,-2.6091288E-3,3.3978153E-2,-5.0771605E-2,-3.43868E-2,7.3846035E-2,1.7146517E-2,8.8490635E-2,-1.3745411E-2,-6.217104E-2,-5.010221E-2,6.303794E-2,9.609042E-2,-3.8926046E-2,-5.3885233E-2,9.7526215E-2,-4.3489244E-2,7.467629E-2,-5.3725947E-2,3.1075506E-2,-5.4063755E-3,8.878818E-2],"categories":[],"categories_nodes":[],"categories_segments":[],"categories_sizes":[],"default_left":[0,0,0,0,0,0,0,0,0,0,0,0,0,0,0,0,0,0,0,0,0,0,0,0,0,0,0,0,0,0,0,0,0,0,0,0,0,0,0,0,0,0,0,0,0,0,0,0,0,0,0,0,0,0,0,0,0,0,0,0,0,0,0,0,0,0,0,0,0,0,0,0,0,0,0,0,0,0,0,0,0,0,0,0,0,0,0,0,0,0,0],"id":13,"left_children":[1,3,5,7,9,11,13,15,17,19,-1,21,23,25,27,29,-1,31,33,35,37,39,41,43,45,47,49,51,53,-1,-1,55,-1,-1,57,-1,-1,59,-1,-1,61,63,65,67,69,71,73,75,77,79,81,83,85,87,89,-1,-1,-1,-1,-1,-1,-1,-1,-1,-1,-1,-1,-1,-1,-1,-1,-1,-1,-1,-1,-1,-1,-1,-1,-1,-1,-1,-1,-1,-1,-1,-1,-1,-1,-1,-1],"loss_changes":[5.603684E2,2.7834625E1,1.9180338E2,4.6931744E1,6.1499023E-1,1.04340836E2,1.8200381E2,2.591051E0,3.371275E0,8.8409195E0,0E0,3.5317047E1,8.8679146E1,2.0406195E2,7.989971E1,2.8378499E0,0E0,4.6683674E0,9.0137863E-1,5.1612854E-1,1.1522849E0,1.5672913E0,1.8212883E1,8.9084625E1,2.0028624E2,3.4465488E2,1.07522644E2,7.3038284E1,8.7971634E1,0E0,0E0,6.088605E-1,0E0,0E0,5.3015137E-1,0E0,0E0,1.7445483E0,0E0,0E0,8.594286E0,1.17334385E1,5.4139347E0,7.065544E-1,6.271792E1,2.7202145E2,8.457688E1,8.580438E1,7.356735E0,2.343291E2,1.2419092E2,1.04863205E1,9.25809E0,5.1083977E1,4.051415E1,0E0,0E0,0E0,0E0,0E0,0E0,0E0,0E0,0E0,0E0,0E0,0E0,0E0,0E0,0E0,0E0,0E0,0E0,0E0,0E0,0E0,0E0,0E0,0E0,0E0,0E0,0E0,0E0,0E0,0E0,0E0,0E0,0E0,0E0,0E0,0E0],"parents":[2147483647,0,0,1,1,2,2,3,3,4,4,5,5,6,6,7,7,8,8,9,9,11,11,12,12,13,13,14,14,15,15,17,17,18,18,19,19,20,20,21,21,22,22,23,23,24,24,25,25,26,26,27,27,28,28,31,31,34,34,37,37,40,40,41,41,42,42,43,43,44,44,45,45,46,46,47,47,48,48,49,49,50,50,51,51,52,52,53,53,54,54],"right_children":[2,4,6,8,10,12,14,16,18,20,-1,22,24,26,28,30,-1,32,34,36,38,40,42,44,46,48,50,52,54,-1,-1,56,-1,-1,58,-1,-1,60,-1,-1,62,64,66,68,70,72,74,76,78,80,82,84,86,88,90,-1,-1,-1,-1,-1,-1,-1,-1,-1,-1,-1,-1,-1,-1,-1,-1,-1,-1,-1,-1,-1,-1,-1,-1,-1,-1,-1,-1,-1,-1,-1,-1,-1,-1,-1,-1],"split_conditions":[2.85E7,9.75E7,-1.848179E0,1.85E7,1.13E8,-3.4379448E1,1.4666667E8,6E7,2.2E7,2.55E7,-6.2192E-2,7.686771E1,-1.2811247E1,5.6190476E7,4.805913E1,1.2288462E7,-6.1554577E-2,1.07E8,1.56E2,1.687E3,3.958E1,7.50794E1,-3.9474712E1,5.5864235E1,7.522382E1,2.0166667E8,6.752043E1,9.0095625E0,8.172395E0,-4.654191E-2,8.626978E-2,8E7,-5.0965983E-2,6.110501E-3,6.9E7,-6.1668485E-2,-1.9128461E-3,1.35E8,8.678659E-2,-6.20156E-2,-3.5326454E1,8.0556526E1,8.706205E1,-1.4400841E1,7.138752E1,6.077366E1,-9.636793E0,4.135E7,2.09E8,5.423578E0,1.1042786E1,-1.2250019E0,2.8892931E1,6.601803E1,5.9021473E1,9.109947E-2,1.7026583E-2,4.399349E-2,1.0533925E-1,5.721676E-2,-4.4934046E-2,-5.6581505E-2,1.1189921E-1,-6.254538E-2,5.537817E-2,1.1261926E-1,-1.3362746E-2,-6.304359E-2,-3.4548614E-2,3.551996E-2,-2.6091288E-3,3.3978153E-2,-5.0771605E-2,-3.43868E-2,7.3846035E-2,1.7146517E-2,8.8490635E-2,-1.3745411E-2,-6.217104E-2,-5.010221E-2,6.303794E-2,9.609042E-2,-3.8926046E-2,-5.3885233E-2,9.7526215E-2,-4.3489244E-2,7.467629E-2,-5.3725947E-2,3.1075506E-2,-5.4063755E-3,8.878818E-2],"split_indices":[8,7,11,8,7,11,8,7,8,8,0,10,11,8,10,8,0,6,4,4,2,10,11,10,10,7,10,11,11,0,0,7,0,0,7,0,0,6,0,0,11,10,10,11,10,10,11,8,7,11,11,11,11,10,10,0,0,0,0,0,0,0,0,0,0,0,0,0,0,0,0,0,0,0,0,0,0,0,0,0,0,0,0,0,0,0,0,0,0,0,0],"split_type":[0,0,0,0,0,0,0,0,0,0,0,0,0,0,0,0,0,0,0,0,0,0,0,0,0,0,0,0,0,0,0,0,0,0,0,0,0,0,0,0,0,0,0,0,0,0,0,0,0,0,0,0,0,0,0,0,0,0,0,0,0,0,0,0,0,0,0,0,0,0,0,0,0,0,0,0,0,0,0,0,0,0,0,0,0,0,0,0,0,0,0],"sum_hessian":[1.0226401E4,1.4316051E3,8.794796E3,1.1205496E2,1.3195502E3,4.743673E3,4.0511238E3,7.284468E1,3.921028E1,9.6053894E1,1.2234962E3,4.4589954E2,4.297773E3,3.042738E3,1.00838574E3,4.575793E0,6.826889E1,1.0764899E1,2.8445381E1,8.836225E1,7.691646E0,3.8811426E2,5.7785263E1,2.0276279E3,2.2701453E3,1.1624772E3,1.8802607E3,1.9959114E2,8.087946E2,2.7038183E0,1.8719745E0,6.735587E0,4.0293126E0,1.228116E0,2.7217264E1,8.682646E1,1.535792E0,4.7517633E0,2.939883E0,3.6684177E2,2.1272497E1,3.525513E1,2.253013E1,1.3938998E2,1.8882379E3,1.8518599E3,4.1828534E2,6.754517E2,4.8702545E2,1.01615186E3,8.641089E2,1.25130775E2,7.4460365E1,6.2444025E2,1.8435435E2,4.6846166E0,2.0509706E0,3.6653523E0,2.3551912E1,2.583553E0,2.1682103E0,1.8645796E1,2.6267018E0,2.3230015E1,1.2025116E1,1.8641844E1,3.8882852E0,1.256809E2,1.3709088E1,1.2219152E3,6.6632275E2,5.298102E2,1.3220498E3,9.19845E1,3.2630084E2,3.512032E2,3.2424857E2,3.440545E1,4.5262E2,2.3850198E2,7.776499E2,7.9009406E2,7.401482E1,4.1499467E0,1.2098083E2,6.803436E1,6.425997E0,5.434096E2,8.103066E1,1.0425737E2,8.009699E1],"tree_param":{"num_deleted":"0","num_feature":"12","num_nodes":"91","size_leaf_vector":"1"}},{"base_weights":[-4.2058663E-3,7.2973555E-1,-2.947272E-1,2.3397268E-1,8.494653E-1,5.6903285E-1,-4.599258E-1,-6.137509E-1,5.4647183E-1,8.793526E-1,6.7056054E-1,8.377519E-1,7.1869776E-2,-5.269606E-1,5.270753E-2,-6.8301374E-1,-6.209337E-2,2.4366792E-1,8.6434937E-1,8.032969E-1,8.98995E-2,-4.3488318E-1,8.731487E-1,9.059816E-1,5.313655E-1,6.961996E-1,-6.0583925E-1,3.683379E-1,-5.7453936E-1,4.8417106E-1,-3.8869506E-1,-6.995992E-1,-2.1292089E-1,-6.676962E-2,8.944875E-2,-6.7983603E-1,7.6737386E-1,6.138207E-1,9.012582E-1,8.709579E-1,-2.3146385E-1,-4.9939632E-1,7.716696E-2,3.924031E-1,8.934009E-2,9.152297E-2,7.619555E-1,9.244262E-1,-6.379903E-1,8.221132E-1,-4.1287452E-2,-2.3092084E-1,-6.982314E-1,8.8027716E-1,-6.637452E-1,-2.693187E-1,-6.1072785E-1,-4.521039E-1,6.707486E-1,-6.816123E-1,-1.2916137E-1,-7.049393E-2,-3.427254E-2,-5.8854885E-2,6.743599E-2,-6.981666E-2,-3.3397026E-2,1.8164163E-2,8.7764986E-2,-6.354536E-2,9.2298925E-2,6.719114E-2,9.1598324E-2,4.6340764E-2,8.795281E-2,-6.973147E-2,2.9325414E-2,-6.743186E-2,-1.9781562E-2,7.5797826E-2,-5.9960127E-2,8.841657E-2,-6.0376372E-2,-7.3624984E-3,9.368776E-2,-2.436929E-2,-7.226773E-2,9.0527214E-2,5.2323844E-2,5.2810844E-2,-5.436472E-2,7.9398744E-2,-7.068705E-2,-3.5188884E-2,-7.120164E-2,9.380617E-2,2.3200901E-2,2.2505515E-3,-6.981619E-2,6.590515E-2,-6.488804E-2,-3.223433E-2,-6.579607E-2,-5.4615077E-2,8.888802E-2,9.140265E-2,3.5271402E-2,-6.9094904E-2,3.3331614E-2,1.024632E-1,-3.8608097E-2],"categories":[],"categories_nodes":[],"categories_segments":[],"categories_sizes":[],"default_left":[0,0,0,0,0,0,0,0,0,0,0,0,0,0,0,0,0,0,0,0,0,0,0,0,0,0,0,0,0,0,0,0,0,0,0,0,0,0,0,0,0,0,0,0,0,0,0,0,0,0,0,0,0,0,0,0,0,0,0,0,0,0,0,0,0,0,0,0,0,0,0,0,0,0,0,0,0,0,0,0,0,0,0,0,0,0,0,0,0,0,0,0,0,0,0,0,0,0,0,0,0,0,0,0,0,0,0,0,0,0,0],"id":14,"left_children":[1,3,5,7,9,11,13,15,17,19,21,23,25,27,29,31,33,35,37,39,-1,41,43,45,47,49,51,53,55,57,59,61,63,-1,-1,65,67,69,71,73,75,77,-1,79,-1,-1,81,83,85,87,89,91,93,95,97,99,101,103,105,107,109,-1,-1,-1,-1,-1,-1,-1,-1,-1,-1,-1,-1,-1,-1,-1,-1,-1,-1,-1,-1,-1,-1,-1,-1,-1,-1,-1,-1,-1,-1,-1,-1,-1,-1,-1,-1,-1,-1,-1,-1,-1,-1,-1,-1,-1,-1,-1,-1,-1,-1],"loss_changes":[2.5104285E3,1.979845E2,1.203835E3,1.7275827E2,1.3787964E1,1.8091638E2,2.4336548E2,6.67395E0,4.561505E1,2.715088E0,8.752208E1,1.7899109E1,2.0198767E2,2.6696924E2,1.5631734E2,1.0678864E0,1.259344E1,1.1911993E2,1.5908356E0,3.3923096E1,0E0,5.1283665E0,2.8543854E0,2.5854492E-1,7.530658E1,2.3102509E1,7.769928E0,1.6787178E2,6.5519775E1,7.280043E1,3.0760475E1,4.485321E-2,2.6486533E0,0E0,0E0,3.3277893E-1,9.978325E0,1.3297222E1,5.9829712E-2,1.1722107E0,7.623514E0,2.9499378E0,0E0,5.9269156E0,0E0,0E0,8.758017E0,1.5859756E0,1.2092228E0,4.8014374E0,1.0922403E1,2.337222E1,6.2410736E-1,7.726349E0,2.5085754E0,2.2317215E2,7.219275E1,9.2576685E0,2.6482956E1,2.034523E0,6.453948E1,0E0,0E0,0E0,0E0,0E0,0E0,0E0,0E0,0E0,0E0,0E0,0E0,0E0,0E0,0E0,0E0,0E0,0E0,0E0,0E0,0E0,0E0,0E0,0E0,0E0,0E0,0E0,0E0,0E0,0E0,0E0,0E0,0E0,0E0,0E0,0E0,0E0,0E0,0E0,0E0,0E0,0E0,0E0,0E0,0E0,0E0,0E0,0E0,0E0,0E0],"parents":[2147483647,0,0,1,1,2,2,3,3,4,4,5,5,6,6,7,7,8,8,9,9,10,10,11,11,12,12,13,13,14,14,15,15,16,16,17,17,18,18,19,19,21,21,22,22,23,23,24,24,25,25,26,26,27,27,28,28,29,29,30,30,31,31,32,32,35,35,36,36,37,37,38,38,39,39,40,40,41,41,43,43,46,46,47,47,48,48,49,49,50,50,51,51,52,52,53,53,54,54,55,55,56,56,57,57,58,58,59,59,60,60],"right_children":[2,4,6,8,10,12,14,16,18,20,22,24,26,28,30,32,34,36,38,40,-1,42,44,46,48,50,52,54,56,58,60,62,64,-1,-1,66,68,70,72,74,76,78,-1,80,-1,-1,82,84,86,88,90,92,94,96,98,100,102,104,106,108,110,-1,-1,-1,-1,-1,-1,-1,-1,-1,-1,-1,-1,-1,-1,-1,-1,-1,-1,-1,-1,-1,-1,-1,-1,-1,-1,-1,-1,-1,-1,-1,-1,-1,-1,-1,-1,-1,-1,-1,-1,-1,-1,-1,-1,-1,-1,-1,-1,-1,-1],"split_conditions":[4.7233332E7,5.9441457E0,-2.4991589E1,7.686771E1,3.6666668E7,7.011812E1,1.1986196E1,7.599044E1,5.019776E-1,1.4E8,1.7E8,-2.79048E1,-3.4379448E1,4.7932583E1,8E7,5.7539988E0,3.6886907E0,2E0,7.8622406E1,2.85E7,8.98995E-2,7.405574E1,1.7833333E8,6.915302E1,6.608842E1,7.966247E1,-3.1801914E1,5.019776E-1,-1.8426334E1,2.195E8,3.6666666E8,7.522382E1,7.405574E1,-6.676962E-2,8.944875E-2,3.3753207E-1,-1.0619413E1,2.0448492E0,9.407697E-1,6.9E7,1.25E8,1.52E8,7.716696E-2,4.5E7,8.934009E-2,9.152297E-2,-2.906838E1,2.2E8,6.758502E1,-3.7188046E1,-4.2368595E1,7.330435E1,7.097628E1,-1.2250019E0,3.9451473E1,6.257802E1,6.65E7,6.7286156E1,6.3E7,6.752043E1,1.005E8,-7.049393E-2,-3.427254E-2,-5.8854885E-2,6.743599E-2,-6.981666E-2,-3.3397026E-2,1.8164163E-2,8.7764986E-2,-6.354536E-2,9.2298925E-2,6.719114E-2,9.1598324E-2,4.6340764E-2,8.795281E-2,-6.973147E-2,2.9325414E-2,-6.743186E-2,-1.9781562E-2,7.5797826E-2,-5.9960127E-2,8.841657E-2,-6.0376372E-2,-7.3624984E-3,9.368776E-2,-2.436929E-2,-7.226773E-2,9.0527214E-2,5.2323844E-2,5.2810844E-2,-5.436472E-2,7.9398744E-2,-7.068705E-2,-3.5188884E-2,-7.120164E-2,9.380617E-2,2.3200901E-2,2.2505515E-3,-6.981619E-2,6.590515E-2,-6.488804E-2,-3.223433E-2,-6.579607E-2,-5.4615077E-2,8.888802E-2,9.140265E-2,3.5271402E-2,-6.9094904E-2,3.3331614E-2,1.024632E-1,-3.8608097E-2],"split_indices":[8,11,11,10,8,10,11,10,11,7,7,11,11,10,8,11,11,0,10,8,0,10,7,10,10,10,11,11,11,7,7,10,10,0,0,11,11,11,11,7,7,7,0,8,0,0,11,6,10,11,11,10,10,11,10,10,8,10,8,10,8,0,0,0,0,0,0,0,0,0,0,0,0,0,0,0,0,0,0,0,0,0,0,0,0,0,0,0,0,0,0,0,0,0,0,0,0,0,0,0,0,0,0,0,0,0,0,0,0,0,0],"split_type":[0,0,0,0,0,0,0,0,0,0,0,0,0,0,0,0,0,0,0,0,0,0,0,0,0,0,0,0,0,0,0,0,0,0,0,0,0,0,0,0,0,0,0,0,0,0,0,0,0,0,0,0,0,0,0,0,0,0,0,0,0,0,0,0,0,0,0,0,0,0,0,0,0,0,0,0,0,0,0,0,0,0,0,0,0,0,0,0,0,0,0,0,0,0,0,0,0,0,0,0,0,0,0,0,0,0,0,0,0,0,0],"sum_hessian":[1.1771568E4,3.337801E3,8.433768E3,6.498663E2,2.6879346E3,1.353643E3,7.0801245E3,1.7477798E2,4.7508832E2,2.299819E3,3.881156E2,8.782561E2,4.753868E2,6.26133E3,8.187944E2,1.5507019E2,1.97078E1,2.442178E2,2.308705E2,4.806469E2,1.8191721E3,5.9933807E1,3.281818E2,7.166968E2,1.6155939E2,2.4742383E2,2.2796297E2,3.156142E2,5.945716E3,4.140099E2,4.0478452E2,1.4931398E2,5.7562094E0,1.2252713E1,7.455086E0,8.82679E1,1.559499E2,3.1909132E1,1.9896136E2,4.5129587E2,2.9351067E1,5.7448204E1,2.4856007E0,1.4090026E1,3.1409177E2,6.6842206E2,4.827472E1,1.2107228E2,4.04871E1,2.1124287E2,3.6180958E1,4.5762512E1,1.8220047E2,2.1106682E2,1.0454738E2,6.3112585E2,5.3145903E3,6.8557014E1,3.4545288E2,1.8939806E2,2.1538644E2,1.4615172E2,3.16226E0,4.2806783E0,1.4755311E0,8.285792E1,5.4099836E0,2.5128231E1,1.3082167E2,6.1208644E0,2.5788267E1,1.4816717E1,1.8414465E2,1.0428805E1,4.4086703E2,1.53734255E1,1.3977641E1,3.557697E1,2.1871235E1,1.0468184E1,3.6218417E0,4.4633343E1,3.6413746E0,1.4313082E0,1.19640976E2,7.843916E0,3.264318E1,1.6367346E2,4.756941E1,1.693493E1,1.9246027E1,1.430023E1,3.146228E1,7.9896483E0,1.7421082E2,1.933823E2,1.768452E1,5.00935E0,9.9538025E1,1.8293895E2,4.481869E2,7.4904517E2,4.565545E3,6.461791E1,3.9391053E0,1.9466869E2,1.507842E2,1.8798792E2,1.4101543E0,3.8682064E1,1.7670438E2],"tree_param":{"num_deleted":"0","num_feature":"12","num_nodes":"111","size_leaf_vector":"1"}},{"base_weights":[-1.4180514E-3,-5.2635497E-1,2.1247339E-1,2.7629703E-1,-6.121301E-1,-4.8057795E-1,3.4299344E-1,6.859533E-1,-2.773102E-1,-4.5746535E-1,-6.408356E-1,-6.014881E-1,1.3992836E-1,4.6744755E-1,-2.9654682E-2,7.418226E-1,-5.8868486E-2,1.4956728E-1,-6.531143E-2,-6.223756E-1,5.660219E-1,-6.468209E-2,-5.352241E-1,-6.539546E-2,-3.301398E-1,-4.7187114E-1,7.4708545E-1,-9.934748E-2,5.8596975E-1,2.596583E-1,-6.069844E-1,-2.4030787E-1,7.746515E-1,8.621435E-1,-5.213066E-1,-3.5933417E-1,-6.5090895E-1,7.3801655E-1,-4.885727E-1,9.2156425E-2,-6.493075E-1,-6.6788495E-1,8.41308E-1,-6.630619E-2,1.5915045E-1,4.1910616E-1,8.261057E-1,-7.518797E-1,4.6185848E-1,6.094469E-1,-5.5175066E-1,7.685613E-1,-2.5156202E-2,-2.9106417E-1,-7.1283597E-1,5.890931E-2,-6.138546E-2,8.884868E-2,4.9055927E-2,9.098628E-2,-8.8481335E-3,7.346557E-2,-6.006504E-2,1.0853865E-1,-6.521883E-2,-3.5311803E-2,-6.533654E-2,2.941824E-2,9.15931E-2,-6.469559E-2,2.2653788E-2,8.21723E-3,-6.5676965E-2,-6.736051E-2,-3.5206284E-2,8.792381E-2,7.7847326E-3,-4.089417E-2,7.5612456E-2,-6.762413E-2,8.952496E-2,8.851027E-2,8.289102E-3,-7.672619E-2,-4.0915314E-2,-3.8906932E-2,8.6911865E-2,2.0576512E-2,6.626671E-2,5.4865737E-2,-6.658547E-2,-6.9672555E-2,9.452806E-2,4.47088E-2,-4.1547563E-2,8.071288E-2,-6.845701E-2,-5.3455144E-2,-7.301584E-2],"categories":[],"categories_nodes":[],"categories_segments":[],"categories_sizes":[],"default_left":[0,0,0,0,0,0,0,0,0,0,0,0,0,0,0,0,0,0,0,0,0,0,0,0,0,0,0,0,0,0,0,0,0,0,0,0,0,0,0,0,0,0,0,0,0,0,0,0,0,0,0,0,0,0,0,0,0,0,0,0,0,0,0,0,0,0,0,0,0,0,0,0,0,0,0,0,0,0,0,0,0,0,0,0,0,0,0,0,0,0,0,0,0,0,0,0,0,0,0],"id":15,"left_children":[1,3,5,7,9,11,13,15,17,19,21,23,25,27,29,31,-1,33,-1,35,37,-1,39,-1,41,43,45,47,49,51,53,55,57,59,61,63,65,67,69,-1,71,73,75,-1,77,79,81,83,85,87,89,91,93,95,97,-1,-1,-1,-1,-1,-1,-1,-1,-1,-1,-1,-1,-1,-1,-1,-1,-1,-1,-1,-1,-1,-1,-1,-1,-1,-1,-1,-1,-1,-1,-1,-1,-1,-1,-1,-1,-1,-1,-1,-1,-1,-1,-1,-1],"loss_changes":[1.2591193E3,2.2368329E2,7.2089496E2,7.143135E1,1.2730225E1,9.485144E1,3.1099963E2,1.3313805E1,2.1643238E1,7.84478E1,1.2161255E0,1.4837006E1,7.717128E1,3.3774658E2,2.8072086E2,5.7858124E0,0E0,3.0898018E1,0E0,2.7605133E0,1.2101717E1,0E0,2.3593079E1,0E0,6.91419E1,1.260689E1,2.3538666E0,3.190234E2,1.11387085E2,1.623093E2,1.855429E1,2.3384967E0,5.0066986E0,1.4987164E0,3.7726526E0,1.8170977E1,3.1692505E-2,4.1566906E0,1.2427423E0,0E0,7.5754166E-1,6.916046E-3,1.0676785E0,0E0,8.754232E0,1.221343E1,3.5626945E0,1.8093567E0,1.6268414E2,8.738928E1,1.0985649E1,1.04706024E2,1.326918E2,6.213121E1,9.053955E-1,0E0,0E0,0E0,0E0,0E0,0E0,0E0,0E0,0E0,0E0,0E0,0E0,0E0,0E0,0E0,0E0,0E0,0E0,0E0,0E0,0E0,0E0,0E0,0E0,0E0,0E0,0E0,0E0,0E0,0E0,0E0,0E0,0E0,0E0,0E0,0E0,0E0,0E0,0E0,0E0,0E0,0E0,0E0,0E0],"parents":[2147483647,0,0,1,1,2,2,3,3,4,4,5,5,6,6,7,7,8,8,9,9,10,10,11,11,12,12,13,13,14,14,15,15,17,17,19,19,20,20,22,22,24,24,25,25,26,26,27,27,28,28,29,29,30,30,31,31,32,32,33,33,34,34,35,35,36,36,37,37,38,38,40,40,41,41,42,42,44,44,45,45,46,46,47,47,48,48,49,49,50,50,51,51,52,52,53,53,54,54],"right_children":[2,4,6,8,10,12,14,16,18,20,22,24,26,28,30,32,-1,34,-1,36,38,-1,40,-1,42,44,46,48,50,52,54,56,58,60,62,64,66,68,70,-1,72,74,76,-1,78,80,82,84,86,88,90,92,94,96,98,-1,-1,-1,-1,-1,-1,-1,-1,-1,-1,-1,-1,-1,-1,-1,-1,-1,-1,-1,-1,-1,-1,-1,-1,-1,-1,-1,-1,-1,-1,-1,-1,-1,-1,-1,-1,-1,-1,-1,-1,-1,-1,-1,-1],"split_conditions":[6.4E7,-4.280702E0,